1426 100
， 0.901304 -1.389778 -1.191002 0.244323 2.406080 0.094076 0.480793 1.151974 -1.902571 -1.433082 1.540247 -2.606471 2.534986 1.658558 0.942656 -0.526974 0.897172 0.206643 1.538914 -2.225405 2.693605 -0.131998 0.887872 0.486300 0.376311 -1.596099 -0.612402 -0.656343 -1.190049 0.671767 0.297577 0.213930 1.866353 -0.167500 -0.128453 -0.223545 1.218301 0.166900 0.208775 1.040148 0.240099 -2.005438 -1.166711 -0.097028 0.221728 1.183145 -0.145357 1.203312 -0.160745 0.703847 1.645259 1.572731 -0.572981 -0.019248 0.566097 -0.874837 -0.121062 -1.067779 -2.923967 1.743624 -0.016755 0.251633 0.761177 -1.078360 1.021469 0.775232 -0.769584 0.355585 0.029542 1.960252 0.705280 0.085334 2.085908 0.479317 -0.759105 -2.187951 0.385809 0.058857 -2.159572 -0.324482 0.717216 1.929389 0.223325 0.297625 -1.037286 -0.385792 0.151746 0.181315 0.057019 0.042407 -0.284411 -0.995777 2.330943 0.369285 -0.227107 -0.013046 0.996236 -0.908849 -0.248189 0.535256
0 0.620631 0.142758 -0.328703 -2.023692 -2.887893 -1.378332 -1.024652 0.581080 0.559954 -3.412477 0.933812 -3.755872 3.362969 0.132945 2.730057 -0.551703 -0.489017 2.246766 1.665588 1.006591 1.998048 0.611027 1.997662 -0.940425 1.340400 1.031321 0.566665 -3.238149 -0.051061 1.378198 -0.799589 0.512327 -1.535114 -1.698261 -1.106875 -0.409865 -3.463155 0.360760 0.841476 -1.354403 -0.689386 -0.140899 0.171101 -0.665860 -0.771189 1.877033 -1.713738 0.697844 -1.610749 2.480736 -0.802885 2.429756 -0.498855 1.080049 1.539448 -0.546956 0.853609 -0.822668 -2.800542 2.073287 -0.177243 -0.416775 1.037155 1.980333 -1.258628 -0.993944 -0.946532 4.458718 1.595290 1.688825 0.447231 -1.123118 0.767473 -0.244809 -2.182623 -2.917354 2.148089 0.549822 -0.281888 1.329082 -0.810923 -1.155713 -0.634315 0.156218 1.064329 -2.240331 0.416791 1.791651 -1.685496 -0.748075 0.445236 0.338939 0.388429 -0.047628 -2.938572 0.480189 3.433799 0.284824 1.802392 -0.285118
告 -1.835530 0.777282 -1.187806 1.393065 2.597968 0.503975 0.943097 -1.777095 -0.350367 0.489333 0.076570 0.030241 1.724865 -0.267137 2.853945 1.780212 0.392143 0.097421 0.904028 -1.798810 0.286573 1.236836 1.721890 -2.548547 1.788123 -0.693633 0.226543 -1.216257 -0.309668 2.092275 -1.398677 -0.878065 0.752527 -0.821440 1.864360 -0.184933 -0.867097 -0.627930 -1.804665 0.986731 -0.839329 0.031481 0.735590 1.367243 0.237505 3.434605 0.156315 0.899688 -0.123774 -1.536502 -1.793745 2.513306 -1.841042 0.191904 -1.518179 1.017571 -0.983484 1.539636 -1.895386 -1.570535 -2.827626 0.451084 1.518377 -2.270399 -1.818528 0.388309 1.703769 3.258491 0.355557 -1.800140 -0.336392 2.348913 0.812310 -0.320735 0.344893 0.934806 0.818889 -1.626933 -1.741078 0.201701 0.273605 0.261775 1.533664 -0.997158 0.586350 -2.796436 2.421710 1.321586 1.310953 -1.620920 -1.167194 0.463134 0.600497 1.196134 -2.779836 -1.838508 0.520231 -2.992668 0.964035 -0.261925
1 0.089266 -0.358043 0.851641 -0.910559 -2.702067 -1.992972 -1.880897 0.837665 1.074873 -1.288534 -1.719409 -2.719089 2.140052 0.062345 3.073414 -0.613232 -0.321389 0.069984 2.377800 -0.981676 0.757152 0.088764 3.628330 -0.749908 1.041198 -0.373825 0.530822 -1.092179 -0.065573 0.820308 -0.116548 1.028076 -2.300438 -2.128259 -1.479089 -0.521705 -3.555507 -0.195984 1.674284 -1.504332 0.085196 -1.754517 -0.709846 0.877079 -1.316011 -0.031941 -1.548929 0.897285 -1.381337 2.305059 0.401925 3.701337 -1.919644 2.448405 0.516126 -1.086538 0.460665 -1.565183 -1.320756 2.622498 0.332073 -0.637105 -0.502998 3.138567 -0.305089 0.500002 -2.053007 4.178921 2.799030 1.883351 -0.054143 -0.906090 1.760716 -0.008218 -1.282462 -2.022861 2.569713 0.173015 -2.418526 2.549500 -0.671238 -0.669596 -0.524501 -0.003655 0.155547 -1.483478 0.815801 2.788892 -0.747718 0.821845 0.232612 0.230125 1.171563 -2.222558 -3.908634 0.218123 2.862645 0.430760 2.442590 1.005198
。 0.449257 -0.619228 -1.315876 -0.974538 2.060959 0.942009 0.877056 0.565098 -0.959284 -0.785616 2.710698 0.409733 2.796420 0.750828 1.654271 -1.207716 0.095493 0.830564 0.615795 -2.190432 2.259788 -1.422968 -0.563510 -0.966384 0.127944 -0.559775 -0.913135 0.127905 -1.364100 0.902055 1.046229 -0.424830 1.583231 -1.308156 0.412534 -0.783476 1.537736 1.512644 1.466076 1.186816 -0.242764 -0.782966 0.069437 0.946994 -0.423373 1.695756 -0.891218 0.934022 -0.300526 0.285728 2.550214 1.576204 -1.188335 0.563010 0.316019 -1.707887 -1.684263 -1.308361 -0.545581 1.809749 0.159479 0.727083 -0.556309 -0.941439 2.057787 -0.153387 -0.311738 2.389644 -0.147023 0.567662 1.435988 -0.261220 2.117621 0.442197 -0.326272 -0.675923 0.959381 -0.687940 -1.598053 -1.228910 1.399653 2.019637 -1.376344 -0.734078 -0.780510 -0.340566 -0.073276 -0.373426 -0.593541 -0.276805 0.063301 -2.038222 0.316476 -0.830781 1.204253 -0.854743 0.949303 -1.017234 0.086784 0.131382
2 -0.789613 -2.047331 2.036964 -1.865988 -1.701488 -1.744072 -2.677654 0.824643 2.106121 -0.649767 -1.287958 -2.612432 2.613682 -0.791339 2.108606 -0.358190 -0.251154 0.670348 1.668146 -0.650337 1.641055 0.467817 2.590517 -0.751632 0.898259 -0.140741 -1.285402 -0.985125 -0.552792 0.502283 0.985529 1.435870 -1.513683 -2.052747 -1.488848 -0.835509 -3.271363 -0.677915 0.933813 -1.168386 -0.034570 -0.057774 -1.389727 0.390419 -2.856880 -0.584934 -1.266178 1.437070 -1.894209 2.210114 -0.028021 3.567517 -1.594814 2.316084 0.343786 -1.356542 0.292006 -2.869545 -1.508554 2.438981 0.793034 -0.389913 -0.024742 2.872852 -1.341386 0.797004 -2.876400 3.182072 2.045924 2.097290 -0.508330 -0.460537 1.101031 -0.698131 -0.829271 -2.479277 2.186556 0.619814 -1.379803 2.306444 -0.263231 -1.336720 -0.984033 -0.028319 0.445219 -1.020919 0.325286 2.647673 -0.610288 0.376882 0.592269 -1.180132 1.612814 -2.340045 -3.480642 -0.419124 4.024887 0.570489 3.337724 0.817287
的 2.005311 -1.866868 0.494611 -2.631444 2.172483 1.136654 -0.988718 -1.373950 -1.150048 -1.192989 0.962910 -0.469574 1.399650 0.517702 0.369438 0.825348 0.917158 1.922504 0.242323 -1.299230 0.648585 1.141682 -1.373595 0.798448 0.093496 -1.933318 0.040519 -0.885571 -1.924476 -0.548622 -1.139046 0.055140 1.217652 -0.434009 0.816057 -0.010080 0.820054 1.334764 0.878548 -1.273691 0.536728 -1.554765 0.480638 -0.060320 0.998017 0.992959 1.531776 1.454560 -1.973806 -1.088893 1.969633 1.114159 -0.524198 -0.378139 0.326526 1.121773 -0.422681 -0.771774 -1.109789 0.012061 1.440517 -1.908625 -0.677388 0.207848 1.486299 -1.314782 -0.602925 0.688575 -0.289440 -2.055457 0.329840 -0.575601 0.202592 0.238445 -0.448741 -0.762215 -0.713830 0.939760 0.567807 -1.774317 0.576169 -0.491721 -2.442816 -1.077123 -2.048726 1.062642 -1.190287 -0.249905 1.677449 0.108673 0.263629 -1.115139 0.235489 1.434051 1.845703 0.697519 -0.255918 -1.583062 -2.681407 -0.853278
被 0.306897 -1.620837 -1.015341 1.379135 -1.019047 1.347808 -1.539447 0.454586 0.837278 -2.079925 -0.033185 0.217611 -0.851785 -0.661301 0.515032 -1.637492 1.447338 -2.430241 3.303555 0.605629 -0.244173 -1.420915 -0.665591 -0.498128 -1.107827 -2.826264 0.646385 -0.426318 0.075554 -0.784478 -3.253243 1.218446 2.492261 -0.145884 1.990829 -1.401372 -1.676942 0.508970 -0.669093 -0.214457 -2.035904 0.377321 -0.323544 -0.398579 1.200727 0.558953 -1.948198 0.079907 4.265090 0.470951 -0.047406 -1.461723 1.214809 -0.182564 1.984191 -1.212519 1.308624 -0.885015 -2.173437 -0.142718 1.427222 0.118208 0.118294 0.278944 0.478681 0.463878 1.880984 0.320590 -1.047833 -2.285101 1.154494 0.649201 1.811594 -1.223682 -1.464151 -0.298040 2.029420 0.351583 0.152174 -0.405786 -2.148423 0.814074 0.835273 -0.761448 2.636081 0.494855 0.679146 0.535982 -1.591640 1.381056 -0.316796 1.922359 2.735603 -1.690595 -1.874009 2.156348 0.666646 -1.096146 3.288805 1.976985
款 -1.851345 -1.913201 -0.000268 -0.904680 -0.698461 -3.216791 -1.453968 -0.489561 1.475970 -4.830392 1.806057 -2.582958 1.555837 2.467674 1.337669 0.807394 2.995567 4.702253 2.128481 0.270316 -2.645496 2.605452 -1.670085 -1.372813 -1.143011 -0.600465 -1.155528 -3.204536 1.994359 -1.271898 -0.646992 0.303679 -0.554819 2.621939 1.215783 -2.110139 -2.044137 3.351709 -1.640632 -0.862260 2.730303 -0.845039 0.737035 0.904443 -0.105694 -0.629238 0.596734 1.025869 -0.707125 -0.395616 2.437020 -1.355565 1.404606 -1.960845 0.270023 2.298589 2.830625 -0.237745 -3.048856 0.025982 0.297862 -1.715777 0.100932 0.861335 -0.717227 -4.411963 -0.027170 2.024357 -0.154974 2.217490 0.220969 -1.198327 0.024330 0.333648 0.744768 -0.201245 0.630044 0.720333 -0.359488 0.018220 -0.401085 0.349220 0.377611 -1.978073 3.598241 -2.344986 -1.325230 1.294989 1.376030 -2.536323 0.119897 0.575045 1.443809 -0.429163 0.738716 -1.177481 0.992863 -1.845633 -0.094754 -0.229937
人 1.231380 1.957823 -2.248651 -0.766172 2.204683 4.028564 -0.657524 0.145001 -0.235561 0.738652 2.630251 0.798262 -2.394449 1.581228 -2.219435 -0.225613 0.300225 -1.487367 -3.479216 1.369629 0.227782 -0.011000 -0.182476 1.665104 1.992144 0.736062 1.131269 0.208698 2.534461 -0.011724 -1.282982 0.063914 -2.299259 -0.376398 0.814347 -1.052406 2.407191 2.194266 -2.410489 -0.543042 0.224038 -2.681129 -1.549661 1.941211 1.411343 -0.142955 -2.014706 -0.507818 -3.863049 -1.221094 -0.275089 -2.820121 1.812493 -0.077592 -1.241216 -2.080588 1.163296 1.767571 1.139650 1.377032 -0.570483 2.990672 0.398373 2.481120 -0.374257 -0.422407 1.999115 -0.051522 2.055432 -0.670182 -0.416331 0.017829 2.006767 4.716129 -0.085852 3.173436 -0.811762 2.029261 -2.037921 1.385386 2.108352 -1.513581 -1.279587 -3.939443 -1.011184 2.005439 3.155657 -1.104231 0.658435 1.380499 -2.237777 0.761079 -0.931406 0.663293 -1.174232 2.141505 -0.110781 -2.319233 -2.248263 -1.329476
借 0.193674 -2.180025 -4.537673 -4.317796 0.216087 3.406327 -1.431502 0.108212 0.123592 0.932836 -2.222387 -2.068094 -1.474191 -1.351701 0.042383 -0.058581 -0.074235 2.315286 0.692371 -1.150261 0.625702 2.062534 2.457394 0.152670 -0.812123 -1.355930 1.568954 -2.588741 0.711439 1.778880 -2.741721 -1.494503 0.748806 0.141447 -0.053578 -0.526852 0.472662 1.182358 1.610669 0.392064 0.766886 0.835904 0.509482 -3.245922 0.119172 2.588256 -0.194712 -1.510006 -1.821314 0.360096 0.410780 0.551272 0.899536 2.661755 2.214759 -0.309577 2.649311 0.258651 -3.382587 -0.956442 -0.362457 -0.399414 1.587930 2.992975 -0.170520 -1.417142 1.313246 3.447527 0.086929 -0.019675 0.004990 -0.846415 2.001329 3.119484 -1.953194 -3.636884 1.860900 -1.660779 -0.240474 -0.640960 -0.220757 -1.116755 2.421708 2.753345 -1.221916 -1.751292 -1.872227 -3.722574 -2.256201 -0.607230 -0.481620 1.066127 -1.766306 -1.341565 -1.068705 -2.330750 0.274662 -0.031526 -0.491966 -2.217815
原 -0.500923 0.014478 -1.918969 -1.792353 0.821306 2.094395 -0.180638 1.210435 0.383857 -1.236037 0.005543 1.475627 -2.339444 0.771047 1.388983 -0.697772 -0.792093 1.239761 2.934863 0.112685 0.781754 0.532272 -1.180206 0.093589 0.362137 -1.107803 0.479820 2.140842 -1.235062 -0.769139 -3.159509 1.232991 2.693479 0.189184 1.204994 -1.031828 -3.182646 2.057332 -1.328623 -0.200668 -2.390769 2.290350 -0.074174 0.916571 1.310569 1.466258 -2.150432 -1.530815 1.009498 1.662922 1.237571 -1.732075 -1.136072 3.341297 3.878531 -1.496411 0.652274 0.060758 -3.238335 1.196478 3.577583 -2.242343 -0.472564 1.273432 3.105667 0.082953 1.713368 1.748562 1.430812 0.871457 -0.248463 2.169041 -0.915435 -1.047610 1.442533 0.295398 0.121627 -1.033100 -0.950484 -2.758621 -3.269959 2.391614 0.403836 -0.679628 1.335566 -0.093876 2.249848 0.229782 -0.310009 -1.042861 0.138119 1.837406 4.061956 -0.536135 -1.139435 2.305784 0.213230 -1.235217 2.434326 1.568208
、 0.917603 2.877510 -1.697892 2.090376 1.711902 2.936142 -2.013451 -1.390038 -0.294334 1.780438 -0.018305 0.163751 1.972297 0.818429 0.188666 -0.295877 1.863072 0.715306 1.316062 -0.988277 0.774754 1.734827 0.573615 -3.662760 -0.595287 -0.246053 1.158424 0.078023 1.999681 -3.597000 1.686036 1.930685 -1.637835 -1.227359 0.399657 -0.501062 -0.203286 0.325117 -0.505480 0.801345 1.210182 1.124735 -1.357362 -2.116006 -0.986551 0.253034 1.777991 2.537942 -1.211901 -0.099900 0.688471 0.585520 -1.981167 -2.136579 0.765093 -0.372886 -0.688233 2.370505 -2.531054 0.905521 0.709807 -1.008383 -2.182754 -1.135645 -0.691113 -0.204271 1.319201 -1.310992 0.890883 -2.268089 1.916276 -2.219203 2.241299 -1.184799 -1.489233 -0.288108 -0.262583 -0.225435 -1.343332 0.062591 2.112413 0.070879 1.424374 -1.206772 -0.000812 -0.859712 -1.420751 1.286401 -0.812545 0.817947 1.118861 0.875221 0.362017 1.329001 1.273259 0.482512 -0.631339 0.529750 -0.528038 0.043361
民 -1.096485 -0.740024 -2.967060 2.008404 2.871392 0.620975 0.484864 -1.483544 -2.935423 2.607018 3.298465 0.048374 1.725431 2.164701 -0.496287 1.238020 0.080201 1.769579 -5.401929 1.002725 -1.465715 -1.615986 -1.171676 1.259817 2.730289 -1.268808 -0.765549 -0.674540 1.051856 0.839091 2.581219 1.471051 -1.530530 -0.187910 0.138088 2.310041 2.887748 1.921171 0.428698 -2.336143 1.651350 1.157673 -0.205089 1.201311 -1.770453 -2.964500 1.337259 -0.015774 -2.738545 2.701073 -1.556226 -1.972453 4.760255 -0.553750 3.241035 -1.003316 -2.374728 1.399524 0.004893 3.453340 1.622309 -1.986469 -2.578850 3.032920 -1.728351 0.457112 -1.069773 -1.443069 0.130000 -1.258137 -1.574253 -1.316264 0.055244 -0.208937 -0.900313 1.671467 0.853235 -1.410398 -0.242718 0.055519 6.338982 -2.962247 -0.451012 -0.252143 -2.425366 -2.224730 -0.085915 1.255961 -2.013683 4.909884 1.496805 -2.509710 -1.362692 -1.858581 -0.578942 3.965028 0.414396 -1.341895 -0.454030 2.512947
日 0.407730 -0.295376 -1.560510 -1.978973 -2.483030 -0.413278 0.417118 4.015410 2.029302 -0.249681 -0.806466 -2.009497 4.122075 -3.621971 0.021652 -1.186871 2.310838 -1.510305 2.633048 -0.362168 0.498742 0.877538 4.097248 -1.556968 -2.533724 0.655952 0.216818 1.415290 1.768113 1.927420 1.234201 -2.167280 0.751349 -1.257670 -0.388015 0.235733 -4.027145 -1.630279 3.483276 -2.043158 -1.420383 2.177055 -0.211306 3.059539 -1.600868 -3.940866 -0.300252 1.006710 0.400579 0.472669 1.138419 2.034963 -0.941802 3.633806 -1.869683 -0.560138 -2.144909 -0.125511 -1.683136 2.294854 0.430427 -1.004554 -0.515907 0.201992 1.234262 -1.061038 -1.784404 2.454711 2.796255 3.432594 -0.673124 -1.173468 2.403624 -3.425365 1.695975 -1.396097 3.359715 -0.559121 0.972933 3.018047 0.904361 -2.002902 -0.247442 -0.157146 0.468069 -3.619071 -0.510520 2.589455 -0.857966 -2.863607 3.359547 0.572193 -1.063303 0.874220 -6.240628 -0.437941 1.763889 -3.196229 3.645706 -0.533172
本 -4.720908 -0.292512 -2.873747 1.581331 3.125060 -1.439700 2.470541 1.253792 0.804287 0.247728 1.179348 -1.493455 1.439042 -0.241258 1.688202 -0.348904 1.973630 0.835313 4.592984 0.770476 2.911703 -2.552682 0.891123 1.637474 1.004401 0.219184 -1.304692 -3.110000 -2.833180 3.685017 0.297512 0.928840 2.770677 1.970265 -1.375001 -0.840952 -2.979049 1.108451 -1.190702 0.361474 -2.124744 -0.576535 1.988481 0.318924 -1.879117 2.150844 -0.183752 -0.191418 -2.077228 -0.173155 -0.134651 0.410675 -3.217815 2.236107 -0.136816 -0.519587 -3.001651 -0.531770 -0.629205 -0.209104 2.474844 -0.518760 0.482582 2.154508 0.761599 -1.701910 1.961498 -0.333239 -0.711469 -0.442847 -1.155245 3.208091 -0.777940 -2.934702 0.638946 1.549002 -1.197029 2.100164 -0.293369 -3.628978 -1.158241 -2.756394 -0.074516 -1.179869 -0.527292 -0.215069 3.525409 0.457304 -1.968147 1.053097 0.359572 -3.046077 -1.764105 -2.741905 -1.176604 0.521843 0.303160 -3.564433 1.355916 -1.145652
法 1.038332 0.721382 -0.542146 0.619411 1.270181 -0.916439 0.640563 -0.842510 -1.016520 1.643535 0.009213 -0.775154 0.290908 -1.245678 1.720913 -0.627828 -1.777701 2.346617 1.711311 1.324641 1.864440 -3.974823 -2.686888 3.407521 4.097187 1.060237 -3.149971 -1.466895 2.065627 2.159712 4.292042 -1.454159 0.007699 -0.414762 2.868480 1.941927 3.247036 0.923914 -2.407000 -2.161374 -0.380769 -1.523445 0.187007 -2.310762 0.619719 -3.821459 2.966571 -3.454675 -1.208762 -0.867248 2.534312 -0.326784 0.697519 -1.708814 -0.085999 -0.293720 -0.424732 -0.460997 0.498304 -1.342669 -1.853038 -0.569475 0.240200 4.506091 -0.156066 -0.469157 -1.417061 -3.721570 1.078824 0.491376 0.103305 4.819577 0.969105 -1.488176 0.483533 5.533992 -3.939216 -1.359867 1.051915 -2.937314 -1.155755 0.991605 -1.143632 -0.066246 -3.232020 1.249752 -3.324742 3.671029 3.097030 1.113242 1.890216 -0.597856 -1.503007 -3.296438 -0.095065 -1.258914 -4.630421 -3.081174 -2.449894 1.189120
月 -0.561879 0.632662 0.202772 -3.682347 -2.764245 -1.001753 -5.263041 3.225285 -0.035814 -2.919791 1.557733 -2.514928 2.536674 -1.216193 1.006858 -0.839145 1.449890 0.941110 0.847072 0.160432 1.675082 2.470495 1.926803 -1.034225 0.787170 -1.552161 -0.653622 -1.652557 3.063201 2.533707 -1.739096 1.737947 3.346745 -3.205828 -0.870620 -3.290660 -2.833251 -1.187795 1.870430 2.179613 1.105926 0.179728 0.275188 2.373245 -1.385110 -2.377256 -0.685371 2.687834 -0.732968 -0.818029 1.163640 3.636248 -3.298395 3.054531 -4.473174 -1.524936 1.214759 -1.467618 1.266172 0.396511 -1.289518 -0.707857 -1.790637 2.449579 2.201494 0.925670 -2.798728 0.507832 3.390366 5.247755 -1.345364 -0.614060 1.500772 -2.737497 1.203472 0.971986 4.116436 -2.096948 -1.060922 2.131771 -1.267904 -2.267079 -1.093974 -2.180648 -0.451818 0.313876 1.744844 3.939033 1.119984 1.128710 -2.364419 -2.154314 2.780656 -2.645046 -5.156724 -0.174772 6.615816 1.163582 -0.058087 1.850289
元 0.516357 1.708458 -3.351862 -3.876743 -1.584643 -0.865862 -0.406972 0.493082 1.247734 -2.653089 2.187710 -3.027494 2.187924 -0.276781 2.136800 -0.332755 1.849308 -1.093320 0.477216 2.615731 2.979583 3.771215 -1.279452 -2.256051 1.064888 1.406968 -0.397153 0.071970 0.491091 -0.005548 -0.142079 -0.770881 1.084136 -3.036659 -0.722496 -3.387700 -7.098277 3.981849 3.188885 1.270442 2.789721 -0.853132 -0.019987 0.320043 -1.587366 1.672836 -3.012404 -1.087697 -2.139299 0.072600 -1.876149 3.514086 2.504442 -0.864918 -1.926309 1.805561 -1.448243 -1.110541 -5.999794 0.151886 -0.224699 -1.402343 -0.985174 3.294303 -1.822287 1.695527 0.146323 2.201237 -1.031970 -0.552972 1.644702 -2.352451 0.119322 -0.006712 -0.955368 -1.466299 1.864835 -0.597182 -0.772077 -1.638746 -2.737615 -2.610482 -0.795472 2.694027 1.895743 -4.004019 -1.098519 -1.331084 1.788130 1.008712 -0.316289 0.573668 0.798774 -1.523458 -1.836852 0.227841 0.607260 -1.271756 -0.982396 -1.368088
定 -0.720825 -6.424484 -0.027650 -3.537623 2.237010 -3.199109 -0.754516 2.761246 3.459575 -0.974213 -0.931505 0.113483 -1.753079 0.311757 -1.758502 3.774612 1.842813 0.122265 -0.715628 1.280656 2.867069 -1.132457 -0.591113 2.674032 -1.940760 -0.532481 1.039302 -1.252628 0.075186 -1.101150 0.561695 -0.969788 2.586089 2.018839 -0.633417 -0.024623 1.253904 2.770386 -0.462020 0.140791 -4.623595 -2.051613 -2.452619 -0.564584 2.776616 1.084001 1.354994 -0.030679 -1.765351 -1.150660 4.243659 0.465781 -3.453248 -1.183169 -1.090087 2.328624 -1.010361 2.048895 -2.870961 2.437345 1.652267 1.367185 0.102877 4.243040 0.048471 -2.519722 1.569836 -2.273243 -1.752236 2.421237 2.656889 0.941011 0.816344 2.590749 -0.333372 2.355271 -0.630894 -1.284076 0.505256 1.488401 1.276818 0.303365 0.071020 0.792421 -0.142741 1.619025 -1.499141 -2.086375 2.252308 -3.182036 -0.528547 -1.688554 0.022906 1.325369 -0.408756 -2.403672 -1.152664 -1.032025 0.420801 0.326353
院 -1.666101 4.248393 0.075364 -5.177361 -0.643818 -3.005866 2.939688 -0.698839 4.903325 -1.567359 -3.821157 4.381766 -1.426734 -0.144103 -1.236457 0.242939 -0.914777 0.163795 -3.070303 0.190183 -0.487612 -0.579484 1.060229 1.594330 -0.765419 -1.282464 0.029912 -2.306442 -3.634077 0.728230 0.306749 1.211572 0.565638 -3.349266 3.670558 0.267673 2.841526 -2.225041 -0.433294 -3.218616 -3.278206 -0.122640 -4.462019 -1.161376 -0.964209 -0.256530 -1.690186 -1.423597 1.791516 3.240776 1.399174 0.524672 2.496570 -0.260915 -1.742995 -1.397384 0.849947 -1.874275 -2.219209 0.419806 -4.256660 -2.420235 -2.575397 0.231492 3.741515 2.442465 -2.455027 3.515901 -0.183865 1.579439 0.480369 -1.064802 1.686754 -3.781809 1.731999 2.388306 -0.010952 -1.074570 -1.895897 -0.555638 3.619491 3.823615 -0.848796 2.954704 0.465704 3.395212 -3.837626 2.266856 -0.346310 0.275550 -1.676724 -4.499774 -2.563873 0.070809 1.236700 -0.274874 2.027810 0.058833 -0.223873 1.195927
年 -0.350298 -2.413757 1.323565 0.044666 -2.836702 -3.257041 -1.462722 1.629817 -0.732216 -0.359915 -3.237527 1.592764 4.428638 1.067314 -1.707932 1.306595 1.420522 0.326949 1.450534 -1.141109 1.469308 3.342348 3.048924 -0.482246 0.727727 -0.456469 0.697203 -2.130970 0.586803 -2.264211 -1.564584 -0.290924 3.467160 -3.831271 -2.295082 -4.485965 -4.742245 -1.526808 3.079410 -0.412417 -2.345250 -0.509225 -0.422233 1.278340 -3.707909 -4.000382 0.468962 1.104400 -3.782896 2.824661 -1.096717 2.721081 1.186395 2.160542 0.687408 1.267132 -0.830583 -3.633916 -0.997525 0.429120 2.700024 -1.506804 -2.919348 -0.657097 2.783827 -0.240906 -1.130502 2.162883 0.881204 0.675756 -0.716836 -0.748355 -0.164371 -4.077457 -0.901577 -0.276791 6.167456 -3.331387 -4.205607 2.359995 -0.341925 -1.772413 0.965782 -1.248892 -3.803509 -3.779581 -0.116521 3.236610 -1.064434 -0.138824 -1.395724 -2.465930 0.631077 -1.976591 -3.556712 1.867596 5.385508 -0.240541 2.445757 1.167828
诉 2.564701 0.878094 -2.931866 -2.581358 3.467331 -0.159949 1.518643 -2.347245 0.056215 1.150232 1.649065 -0.326167 -0.393413 -0.762446 1.812074 -1.685991 -0.122917 -1.893493 -3.060882 -2.367680 -2.119772 -0.138713 0.733715 2.586359 0.502975 1.262544 -2.114595 -1.062954 1.895363 -4.140303 -0.861357 -2.524490 -0.268158 -0.670537 -1.455206 0.901294 1.288563 1.115435 2.464129 1.727562 -2.443619 1.884881 -1.472692 -1.754636 -3.537208 0.281731 0.704506 4.632761 -3.897347 -0.753052 1.904972 -2.828741 -0.061826 -1.353651 -2.348310 -5.021759 2.425218 -1.965465 -1.567512 -0.795464 -1.484495 0.111309 2.310526 1.761449 -0.130923 1.307876 1.502180 1.690058 4.643772 1.328981 -2.111313 3.601400 0.896535 0.525124 1.761962 3.439712 -0.289562 -2.073270 0.381418 1.678605 -4.545511 2.346698 1.212191 2.532318 0.112109 3.042115 1.460371 1.347136 0.664988 1.626982 1.065372 -6.837239 2.958893 -3.083477 -2.755925 -1.281959 -1.069668 0.911727 1.222575 -0.829764
理 0.351717 -0.372630 -1.902017 1.747270 -1.096370 -5.966791 -1.007823 1.165087 1.321566 1.827969 1.059966 1.203899 -0.359143 -3.175679 0.385010 0.880437 -0.392001 -2.416447 -1.920744 -2.614295 -0.116548 -2.814254 -1.485931 -0.757449 1.720114 0.161067 1.830751 -1.418380 4.376420 1.828479 1.406087 0.251426 2.853248 0.618790 -2.148893 1.103832 -0.073535 1.573314 -3.163380 0.818418 1.153001 -0.079354 -3.403797 -2.156945 0.107271 3.532737 2.899716 -1.058530 2.709810 1.074135 -3.470301 -0.521059 1.965858 -1.169316 0.470541 -1.303426 -1.897267 -1.656169 -5.084720 1.172404 -1.646432 0.494502 -1.733422 -0.536055 1.064526 3.186682 0.960259 -3.035144 2.572507 -1.571991 0.965222 0.616947 2.126795 0.599565 1.508498 1.373899 -1.567201 -2.392754 0.892469 0.931751 -0.724484 2.041230 1.001816 -2.484762 1.816964 -1.992594 -2.769819 1.833762 1.858134 1.469240 -0.273324 -1.944488 1.403256 0.370110 0.219172 -0.874221 1.037246 -1.985507 1.922690 1.961617
3 -0.080061 -1.761838 0.749929 -0.770592 -2.576678 -1.338492 -2.004991 -0.074164 1.140967 -1.882493 -0.771433 -2.192449 2.614881 -0.305664 2.790351 -0.811349 -0.131130 0.329566 1.791803 -0.859967 1.312637 0.557537 3.491078 -0.322208 1.593854 0.365838 -0.810819 -1.813866 -0.379738 0.446997 0.493193 0.302104 -1.940378 -1.251340 -0.849186 -0.557338 -2.111275 0.326568 0.135650 -0.916551 0.599764 -0.645074 -0.593011 0.477744 -1.576403 0.944357 -1.452675 0.627762 -1.604752 1.973505 0.275834 2.698738 -2.259499 1.333518 1.408569 -0.445705 1.807792 -2.652945 -1.007167 3.523985 1.053041 -0.400894 0.434384 3.386786 -1.744794 0.463011 -2.093850 3.524506 1.941252 1.529428 -0.950674 -0.684214 1.350177 0.233297 -1.688906 -1.932274 2.095812 0.382331 -1.152354 1.799811 -0.297268 -0.705591 -0.011044 0.232581 0.779193 -0.481793 -0.244730 2.241189 -1.009022 -0.180876 0.265841 0.232378 1.381946 -2.068715 -3.296216 -0.886212 3.022177 0.504920 2.676853 -0.065896
一 1.696023 0.762978 -1.737381 -0.820315 3.204266 1.692593 -3.152059 1.478724 3.066002 -1.125318 -1.906943 0.345039 0.414380 1.821465 1.232674 2.967032 -0.367819 -0.260930 -1.268783 0.490441 -1.423657 -0.035135 0.748652 2.705538 -2.174825 -2.318550 0.501496 3.264496 0.472205 -1.135140 0.346831 -0.072854 -2.097723 2.243675 -1.509410 1.209248 -0.232660 1.162228 -0.204539 -0.722717 -0.873869 1.446505 3.486219 -1.933308 -1.106156 -0.003501 0.179156 0.493370 0.188120 -0.140023 1.709759 3.421354 -1.622288 -0.931524 1.382921 -1.347242 0.545059 3.338902 -0.647165 -2.813470 -1.300856 0.818380 0.060740 1.101886 -1.755800 -1.431090 -0.272881 -1.142075 0.647541 1.546729 0.947528 1.051566 2.231678 1.771675 1.817091 0.184317 -1.195202 -0.678328 0.627551 3.237732 1.146113 -0.891087 -0.359849 -0.246330 -1.170737 -0.238728 1.593021 1.943857 2.066830 3.270311 0.970479 2.541282 0.447550 -0.250335 -1.426728 0.733014 -2.240210 -2.772214 0.565365 -0.944660
第 2.615805 2.847686 -3.389578 -4.577043 2.419163 5.433398 0.133942 1.045671 -0.604900 -1.520368 0.247020 3.033344 -3.098062 -2.537135 0.077655 1.844573 2.784394 1.487987 -4.916116 4.112979 -1.151840 0.625965 1.498359 2.121739 -1.202948 -1.949613 1.512688 0.894371 2.121262 -3.724476 3.165233 0.260039 1.915442 -1.897145 -0.461609 0.902816 1.734015 0.296396 1.485962 -1.460045 0.895445 -1.524766 1.495861 -3.947428 -1.424872 -2.850258 1.715037 1.695471 -3.464200 -1.123071 2.125947 -0.356700 1.293084 2.522800 -2.493759 0.571088 -2.541952 -1.527824 0.205089 -0.098502 2.436196 -0.731332 -0.555449 3.588190 -1.065420 -1.120755 0.536344 -4.819466 -0.118150 -3.226573 0.919546 3.072489 4.776256 -3.612190 -2.125835 -0.292031 -1.541536 -1.255409 1.208791 1.535695 0.725569 -1.535278 -0.088197 1.760595 -0.301158 -4.021802 -3.018674 -2.659883 2.262336 4.508474 -2.357278 1.559869 -3.854061 2.150649 -1.454545 4.729131 1.026860 -0.555953 -1.382689 4.247421
利 2.784734 -2.097217 1.620815 -4.082331 -3.481136 -3.988801 -2.593478 -0.953262 0.333717 3.706070 2.008653 -4.478744 0.699176 2.699552 1.292706 -0.408488 2.093549 -0.504504 -1.773076 -1.181899 2.618917 2.742003 0.423813 1.073309 -1.002659 0.598653 0.573955 -2.800968 0.704318 0.898289 -2.669198 -2.259628 1.509181 3.070812 0.559811 0.011152 -2.062547 -1.372914 2.091407 0.824508 -0.417526 -1.039725 -1.354378 2.252782 2.254791 0.498007 -1.268811 -1.365461 3.250574 2.259760 3.314229 -0.049649 1.865924 0.817395 -1.195747 2.499828 0.386887 0.295537 -0.429368 0.357592 2.370592 0.275232 1.070202 2.759917 -3.110467 -3.343528 -1.787860 5.464067 0.313227 -0.027493 2.570359 0.832737 -0.284042 -0.382039 -0.123943 -0.907548 -3.061950 2.831532 0.909610 -1.133102 -0.886980 0.202446 0.452248 -3.219684 0.406688 -2.320103 3.563188 -0.687159 0.071487 0.354523 1.197288 -1.331599 -0.846255 -1.596817 0.578393 1.919437 1.818758 -0.118154 -1.084451 -2.021561
条 0.041316 0.181639 0.586972 1.022462 1.793485 1.751861 -2.944593 1.185862 1.592562 -6.038014 -1.122684 -3.917566 -0.608194 -0.677312 0.462302 3.126723 5.198059 1.246121 -5.283941 -0.249157 -2.002704 0.347322 0.743587 2.729520 -2.700769 2.355482 0.060107 -0.620679 2.106107 -2.251931 1.271868 1.684181 0.280289 3.847336 1.111765 -2.260563 -1.154302 0.399710 -4.423206 0.308575 -0.862775 -0.622099 1.227656 0.803635 -0.690918 -2.838756 2.644950 -1.912152 -1.539077 0.847741 0.969059 0.614153 -0.698952 -4.716081 2.470709 1.206326 -1.334285 1.519728 3.210385 -2.130614 -2.034409 0.665615 -1.830970 1.524979 -0.906084 -5.195805 0.374301 -0.669719 -1.831075 2.965680 -1.939149 1.233145 3.413777 -3.216764 2.851995 0.853330 1.418838 1.290860 4.169045 1.155007 -1.171567 0.923382 -0.739417 -0.486386 -0.092306 -0.511717 0.695445 -0.629029 5.820529 2.187713 0.993972 2.330373 0.748275 1.023337 -1.976975 1.423012 -1.223055 -0.651381 -0.582652 -3.918114
中 -2.618023 0.649620 -1.225970 -3.452682 -0.312944 -2.718817 0.603135 -2.895715 -1.635083 2.444814 -0.648195 1.908794 1.376122 -0.171839 -0.862868 1.373468 1.452054 1.112790 1.736569 0.418732 0.273219 -1.346440 0.023248 -2.669870 -1.378442 -1.212428 -0.595155 -0.729893 1.674271 0.792002 -0.290574 1.045450 0.244479 -1.472786 0.873538 -0.098328 3.750629 1.587186 -1.985413 -1.762023 2.406303 1.943440 -5.277823 1.333310 -5.678366 -1.621585 1.253362 -2.390949 -2.099098 -0.086310 0.400087 -1.366150 1.268261 2.272045 0.459564 -0.746152 -0.403079 -0.634927 0.569874 -3.338419 -1.644779 0.056689 0.981943 4.982874 -0.520844 -1.253847 -2.099680 0.460403 1.838895 -1.157575 1.651340 0.681184 5.122870 0.241148 1.009838 1.813062 -2.154286 2.116019 3.906539 2.886034 -0.169261 -1.240236 1.696154 3.294638 -0.458496 1.358768 0.037481 0.782558 -0.953873 -0.983516 -0.465167 2.372440 -1.175392 -2.952548 0.355428 -2.562415 -1.260364 -1.368313 -2.299914 -0.858558
行 -1.786363 -1.184240 1.007463 -2.942783 1.527693 1.902174 -1.376122 0.620373 0.778432 3.663593 2.382809 -0.920091 -0.779365 2.096023 -3.151820 -0.251069 -0.679589 0.147541 1.334919 3.390543 2.400248 1.409973 -3.283359 1.944986 -1.470719 -0.032120 -4.018922 -0.763646 -3.628854 0.435350 -2.026461 -0.398120 2.678483 -0.661904 0.943811 1.144222 4.995725 1.631413 3.431019 -0.867355 0.887116 -0.749511 -2.243322 2.606161 -0.791469 0.169270 2.311809 -0.765869 1.753620 -0.584978 -2.195959 -0.544910 2.018631 -0.656682 -0.471789 0.058313 1.338476 1.861591 -1.001031 -0.224612 -3.857534 1.146904 4.215919 4.271520 0.823822 -1.854786 2.305060 -0.347761 3.175374 -2.573730 -1.793940 0.767186 -1.077398 1.436973 3.580441 -3.447885 -1.539188 -2.214330 -0.974243 -0.569794 2.347084 0.611053 -2.657666 -2.421789 -0.720658 -0.218941 -0.048215 -3.914031 -0.344782 -2.348094 -1.635302 -0.353981 -0.074529 0.652522 -0.405030 -1.434311 -0.696401 -1.480903 2.103725 -1.692871
还 2.503132 -2.591042 -4.258637 -1.534077 0.700240 1.431248 -3.451705 0.045958 -0.313533 -3.342979 0.705580 -1.677874 4.266263 0.908158 3.092030 1.595570 1.765668 0.076242 0.816354 -0.849691 -2.010898 1.173927 1.720889 -0.186000 -3.726529 0.550565 1.048086 0.329868 0.676666 1.448342 -2.435132 -4.164610 1.277553 -0.380984 2.168194 1.317991 -1.240360 0.784475 -1.961941 1.325480 -2.601022 1.362602 -0.323280 -1.474690 2.191946 2.904158 -0.634812 -0.540453 3.055244 3.142099 -0.529417 2.830105 2.299186 -0.691926 0.488331 0.896979 2.516939 -1.200084 -0.578813 -1.630617 0.779072 2.976555 3.116507 4.969851 4.365011 -0.636353 0.702534 4.808641 -1.676949 0.569706 -1.417850 -4.097327 0.172022 -0.120999 0.030462 -0.088872 -3.106828 -1.276077 -1.305758 1.155494 -0.267385 -1.065747 -0.196663 1.234625 -2.263592 -4.667592 1.625903 -1.673371 -1.467707 -1.363810 0.098818 -1.560937 -0.268515 -0.688615 -1.449672 -1.080511 2.121062 0.015461 0.362681 0.408161
事 -0.112994 3.745577 0.696472 -1.425090 4.604229 5.189014 4.036521 -1.607450 -1.338574 -2.654833 -0.300928 0.041512 -2.522180 2.085493 -2.886757 2.962780 -1.436434 -1.412196 0.547581 1.643475 3.223261 -0.671171 -2.130889 -0.842838 -1.383817 0.539716 1.979288 -1.679696 2.507401 1.612343 0.557007 -2.218613 2.008900 5.269605 3.200401 0.161612 2.413420 -4.596438 -4.064270 -2.226115 3.260268 -1.224413 -0.467587 -3.803396 -1.098024 1.229819 0.919014 -3.792648 1.465260 -1.890501 -2.452749 -3.310689 -1.454241 -4.063343 -2.094176 0.578977 -3.954483 -1.898430 1.463816 0.227382 -1.149361 -4.003006 2.369387 -0.069835 0.041080 1.142296 -3.966735 -0.738918 2.385338 4.091392 0.029701 -2.912019 3.375423 -2.809382 -0.518011 0.705098 -5.556803 -0.620457 5.620795 -0.448288 0.714477 2.790186 -1.767452 1.426911 -0.654226 -0.106741 1.703618 -2.394514 -0.143449 2.599077 2.473883 1.342767 -1.648696 -2.642068 -0.165909 0.373983 0.968899 0.659343 -2.656277 -0.630510
5 0.323431 -0.744470 0.998009 0.610661 -2.059395 -1.558008 -1.328907 -1.031721 1.610428 -0.706148 0.667158 -3.291511 1.890915 -0.406831 2.682643 -1.026438 -1.716452 -0.110385 2.774400 0.619853 1.268854 0.657397 2.691173 -0.665526 2.254932 0.380239 0.336935 -1.926109 -0.988966 0.138481 0.997706 1.002700 -2.049508 -2.016707 -1.858565 -0.960330 -3.631423 0.897051 1.042188 -0.552999 0.046833 -0.958007 -1.394124 0.161601 -1.004776 1.478406 -1.024068 -0.061088 -0.420217 1.855378 -0.049144 1.876943 -1.415552 1.162071 1.437576 -0.822062 0.205971 -1.985435 -2.299192 3.878698 0.037265 -1.020859 0.844258 2.850740 -1.964689 0.559002 -1.368133 3.428165 2.987402 1.109460 -1.460156 -0.886310 0.703586 0.791470 -3.606374 -0.723778 2.303333 1.839798 -1.001336 1.416325 -0.718709 -1.056096 -0.636756 -0.025286 0.771791 -0.631216 -0.887431 0.642518 -1.827146 -1.033172 -0.424170 -0.426331 2.806105 -0.585285 -3.379414 -0.537687 2.321190 1.187581 2.253597 1.053053
于 1.278226 -1.949862 1.204885 -1.832660 -1.220750 -0.010849 -0.146705 1.084074 1.732143 -2.726619 -0.320480 -5.043434 0.097106 -1.636024 2.288776 -0.505559 3.476380 -3.187054 1.726046 -4.285747 -1.522102 -0.830831 -0.860272 -2.657160 2.045927 1.039716 -0.456372 1.554488 -3.308997 4.582475 4.361178 -0.938493 1.174013 -1.819049 -2.898468 1.217162 -1.530091 -0.526868 -0.448156 -0.844996 -1.016208 -1.043259 -1.233048 0.744408 -2.811822 -0.640378 -1.241904 0.540085 1.404388 2.209351 -2.564844 -0.656364 1.368164 1.973129 0.418562 -2.612703 -0.652359 -1.340466 -3.670159 3.322240 1.028286 -0.372034 -2.103508 -1.660918 -0.600509 4.678130 -2.406797 3.042385 2.522473 2.126711 1.817246 -4.491140 5.683122 -0.413928 1.783099 -1.263135 1.376979 -0.632513 0.997654 -0.425088 1.750293 -1.223470 4.026900 0.928711 1.149466 2.113239 -0.702983 -1.879769 1.157903 -0.588161 -1.482362 -2.826110 -1.864943 0.949290 -1.031839 1.686066 -1.034576 -0.208928 -4.846853 0.078169
4 0.382517 -1.273174 1.189861 -0.810743 -2.809447 -1.949337 -1.761223 0.843130 1.408702 -1.608863 -0.150671 -2.417657 3.064945 0.200044 1.846583 -0.970708 -0.849167 -0.861044 2.260881 -0.761684 1.375597 0.099979 2.084496 -0.516400 2.705338 1.018898 0.294496 -2.031932 -1.399681 0.136967 0.913721 0.564885 -2.016617 -1.832335 -1.907891 -0.421718 -2.623058 -1.010113 0.874153 -1.210803 -0.314595 -0.102862 -1.743693 0.270774 -0.980340 0.464425 -0.837183 0.835888 -1.671171 2.059887 -0.185780 2.831050 -2.193892 1.372468 1.359650 -0.871646 0.235034 -1.636016 -0.360851 3.510770 0.423647 -0.883804 0.192625 2.412845 -1.268244 0.149537 -2.624774 2.917576 3.382643 1.378870 -0.810139 0.164805 0.795645 0.119180 -1.708075 -0.906829 2.230239 0.531072 -1.017791 0.783603 -0.594948 -0.347405 -0.935869 -0.053367 0.341802 -0.874676 0.700261 3.074728 -1.565033 -0.366074 -0.566853 -0.491057 0.543132 -1.615142 -3.341686 0.377272 3.404827 0.227177 2.702151 0.634248
为 1.958598 -2.117087 -0.702331 -1.452334 1.169438 -2.951064 2.586589 1.054781 0.160217 -0.390069 -3.809910 -2.814600 3.044907 0.152847 2.221981 -0.259009 2.733006 1.833492 1.337607 -3.062153 -0.877044 1.913087 -3.213239 0.345989 -1.110196 -1.067516 1.595347 -2.049680 -0.361082 3.014154 0.618944 -0.436481 0.787620 0.876437 0.708552 -1.288516 -0.932983 4.743680 1.125275 -0.780774 1.351483 -0.245261 -0.169270 -3.271705 2.247699 1.701667 1.420172 1.652356 -1.566823 2.506690 2.850396 -0.370435 -4.313553 -0.247829 2.795336 2.531576 0.739929 1.302247 -2.039741 0.196599 1.189105 -0.142054 -1.575671 -3.091761 -0.036392 1.941781 -3.009340 2.313779 0.159419 0.784801 0.184107 -0.348727 -0.284540 2.344610 -2.238091 0.364299 -1.345868 0.909602 2.683298 -0.099750 -2.269486 -1.412484 -1.584194 1.938360 2.244427 0.338004 1.103638 -0.636070 0.792755 -0.728275 -1.314785 -0.353835 -0.126646 -0.385917 0.764584 0.041434 -0.082235 1.864874 -1.252815 -1.351213
息 0.430814 -3.176694 1.924309 -2.687347 -1.623876 1.755356 -1.717912 1.792624 0.799965 -2.628554 0.025616 -2.764784 0.064096 0.003429 -1.234366 -1.295497 3.893872 3.334255 1.806649 2.787000 -2.738461 -1.990036 -1.156358 0.338311 -0.864375 -0.234439 0.219937 0.419190 -0.415389 0.798166 -0.407712 -3.288656 -1.807932 -0.428535 -0.519719 0.752593 -5.428300 0.559060 2.019798 -0.353802 0.037225 -0.097599 2.429957 0.835656 -2.020900 3.346373 0.613130 -0.895725 -1.939368 0.172884 1.586790 -2.066202 0.881512 2.358798 -2.683349 2.756968 -0.135060 -3.568353 -3.785831 0.529313 -3.062499 3.725281 1.863469 3.389919 1.089915 -4.066695 -0.633318 2.811769 -1.439147 -2.704925 -0.202649 -0.737528 -2.962720 2.576198 -0.630209 -1.350198 1.303216 0.937146 -2.807894 0.012962 3.041237 1.784015 -2.880068 2.954292 0.261286 -1.020189 3.567950 2.359034 -0.010313 -0.566916 -2.805101 -2.275121 1.897824 3.254026 -0.135671 1.636512 1.005121 -0.577450 2.118994 -1.166256
四 -0.192454 3.143375 -0.476260 1.558178 2.653650 3.013703 -0.116205 -1.073061 3.449676 0.886492 -3.723255 -1.993554 0.305453 0.446902 0.330738 0.187944 -0.035276 1.690646 0.924906 -1.311414 0.101078 -1.425836 2.676124 -0.649092 -1.894988 -0.436151 0.885494 3.284468 -0.880082 -2.047479 -1.324300 0.107643 -2.253231 2.477731 -0.162074 0.078429 0.784398 -2.966086 -1.884535 1.447553 -0.161389 2.637625 -0.279410 -2.028523 -0.735112 -2.957639 -0.881220 1.730915 0.654613 -0.367087 0.296107 1.116248 -1.195043 1.163343 0.356707 0.939465 -2.728294 1.461816 3.157161 2.927816 1.158324 0.337906 -2.517247 3.963672 -0.935686 2.362374 -0.352425 -4.040059 -0.545760 0.158769 -1.181391 -0.188139 0.513210 1.428158 0.592157 -0.087773 -2.397429 0.044029 2.305897 1.106448 0.551014 -2.073400 0.655167 3.195606 0.343450 -0.285009 1.359890 -0.468573 1.981158 2.314494 1.338654 2.308192 0.622863 -0.012312 1.847882 -0.522878 0.142292 0.246846 2.080001 3.671681
公 -1.354007 -0.518760 -2.013117 2.745364 -4.855501 0.754685 -3.910875 -1.310369 -0.941849 -0.727800 -3.103081 0.098729 -1.687331 -0.039323 -5.354084 -0.210959 -2.586673 0.018899 3.453277 -1.510701 -0.461588 -1.427838 -0.885263 2.386858 -0.298700 1.768291 -3.665402 -1.269118 0.187410 -1.365620 -0.516287 1.789460 -2.484545 -1.254732 -0.577838 -0.789457 0.573543 2.936629 0.848418 -1.894679 -0.646945 1.850228 -0.916089 -2.341003 -0.426296 1.756231 -1.418861 3.028031 2.138821 -1.080631 -1.453716 0.304697 -2.157664 0.607346 0.138028 1.994193 1.906122 -0.705264 -1.492465 3.534868 -1.520504 -0.754130 -0.223894 0.990747 0.777166 0.024980 -1.638687 -3.699798 -0.133123 2.086749 -2.065132 0.700280 2.332603 1.059571 1.600878 -0.706107 1.055606 -1.565133 0.851038 1.524272 -4.768720 2.800513 4.735364 -2.109966 0.680097 -1.183886 2.016873 0.885836 0.203439 -2.429811 5.510103 -0.621588 -2.197342 -3.072908 -0.809964 2.618967 1.017952 0.262461 -1.782827 1.689743
期 1.188806 -2.767806 0.056552 -3.881739 2.055849 -1.724081 -1.875650 4.982436 -0.146276 -1.215676 2.357937 -0.991792 -0.747406 0.172306 1.849771 0.899968 -0.942139 5.117294 1.176374 -2.245076 2.034854 3.976160 -0.637567 -2.283942 -2.734604 4.559268 0.002855 -2.835345 -0.565719 3.694278 -0.096521 -3.481830 -2.702628 -2.444959 1.143672 2.195878 2.910611 1.419643 3.512964 -1.559412 1.129535 0.877826 6.056639 1.955301 4.328529 2.777847 1.233902 -2.692113 0.162081 -0.145389 1.803138 -0.494096 0.100320 3.965141 -3.703826 -0.060680 4.553296 1.151508 -1.968538 1.216277 3.797051 -0.656553 -0.181592 2.994249 0.500470 -6.683019 -2.121297 -2.346548 -3.242835 -2.320246 0.665292 -0.882983 1.596865 1.064339 -0.882193 -0.973415 3.161551 -0.149560 0.521340 -0.702011 2.881242 -3.772694 4.224306 0.588583 0.886883 -1.470356 2.259289 -1.877878 1.878265 -1.080540 0.057533 -1.615086 0.976847 -2.124138 -0.206942 4.649505 -0.153252 0.563035 2.525990 -1.179854
金 4.368020 -0.764890 0.823601 -7.120329 -1.941988 -1.317217 -2.399349 -1.435956 -2.859050 0.468541 0.233271 -0.971538 1.742890 2.377541 -0.460506 0.516991 -1.883216 0.319483 -2.667288 1.986526 -0.661109 0.877786 -0.020357 -1.027889 4.024978 1.635149 -2.561153 0.618730 2.084500 -1.165735 -0.417827 -2.521603 0.132627 -2.085719 0.635056 -0.268397 -1.662500 2.173748 -0.353972 -1.368089 1.170373 1.690650 -2.077620 -3.516595 2.659164 3.713324 -1.877898 0.806897 0.560260 3.744965 -1.416702 -0.400771 0.568102 -0.861665 -1.541306 1.791941 4.786947 -0.560985 -3.878194 2.423340 -3.540332 -0.788493 0.297149 2.162343 1.731880 -2.702818 -0.607781 4.097860 -1.365339 1.085354 2.613084 -1.690659 0.905347 -0.979862 -0.913319 -1.475977 2.360205 -0.495776 1.075899 1.124881 0.712672 -1.250957 -1.164899 2.792261 3.163744 -0.173530 1.420801 -0.355795 2.995828 -2.707038 -0.002597 -0.026991 4.303186 4.914996 2.034031 0.903032 2.845580 -2.305246 -1.357627 -0.673193
判 -3.060836 -2.214908 -3.042336 -2.904800 1.563099 0.377739 0.055151 2.221491 2.387808 4.706809 -0.346032 1.883354 -0.518104 -5.618931 0.918220 -0.699821 -1.544836 -2.643043 -4.864861 0.832070 4.810453 -1.134706 1.525338 2.462692 1.890325 2.923716 -2.746120 1.087232 -0.226724 -0.762075 -0.835433 0.364819 1.623426 -2.371358 -0.728865 -0.728634 2.220554 0.635989 -0.986443 1.315269 -4.701912 0.664268 -0.905671 -6.110893 3.002820 -2.425103 0.660770 -0.142849 1.309887 -1.863648 5.449899 1.413928 3.843976 -2.237700 -1.520838 -1.354978 0.156285 -2.083194 -4.680246 -0.290402 -1.824005 -1.724930 -1.868432 0.523465 2.352407 1.512359 -0.791908 -3.747294 -2.992733 -0.535289 -3.123066 1.022437 -0.683380 1.349690 2.582398 1.409423 0.089351 0.262058 -0.813978 -1.906581 -0.389874 -3.159453 3.451170 -3.546065 -3.220676 0.089637 0.873090 2.539742 -1.651741 1.075478 -4.010653 2.025416 -1.577091 0.980127 -0.197421 1.247342 0.183215 1.638080 4.017779 1.079256
审 -2.402147 3.136768 1.982301 2.291785 0.065732 -2.965330 0.498690 -0.364940 1.094496 -2.278189 -0.292936 1.993238 1.304641 -2.942599 1.629038 -0.916442 -1.915157 -2.364447 -0.719138 -0.928156 0.227211 -2.376794 -3.787672 -1.752474 0.319354 1.990140 -2.858939 3.265277 -0.534430 1.911997 2.199318 3.848858 -2.761769 -1.408123 1.570019 -1.188325 1.189504 -1.505304 -0.199647 -2.464817 -1.895058 6.280542 0.475280 5.415291 0.127132 1.262286 3.651227 -1.351366 -1.937982 -2.994601 3.667027 0.481934 5.296194 -7.401654 5.196956 -1.216836 0.585459 -1.396081 2.919137 -0.521292 0.706585 -0.016286 0.285732 -0.993326 -1.539528 5.055304 4.131874 -1.160657 -0.331018 4.069481 -1.582399 1.175458 -2.022881 -1.147666 1.120255 6.029388 -1.529563 -0.694109 -3.587656 -0.929789 2.594867 2.682842 -0.570613 0.832960 2.847472 2.681628 0.958625 -1.264180 -2.418625 1.230008 0.405137 -4.564560 2.743454 -1.662032 -0.697109 0.541207 0.888102 1.741522 -1.905573 -1.497285
二 1.723284 1.718461 -0.215260 0.004031 3.672834 2.262338 -3.221674 0.193758 1.513928 -0.347709 -0.538437 0.373960 1.104889 1.543385 2.067400 0.791948 2.241486 2.907101 -0.748657 0.363799 -1.786185 -1.081770 1.941263 1.309826 -1.117907 -0.626229 -0.649069 3.411776 0.055398 -2.541981 1.556653 -0.432258 -3.861599 0.638038 -0.649374 2.231901 1.215656 1.109704 0.407546 -0.485217 -0.717748 0.023392 -0.063098 -2.282971 -3.081054 -1.943798 -1.709980 1.484801 0.105233 0.771382 4.456285 2.098377 -2.660908 0.450943 1.766272 0.429650 -1.242620 -1.679645 -0.982374 -1.657633 2.081971 -0.545454 -0.710330 2.295249 -2.817084 -0.393795 0.843353 -1.330093 -1.689669 0.463625 -0.534568 1.400497 1.573961 -1.338160 0.930442 0.634793 -1.074318 -0.574440 1.665115 3.379359 1.153337 0.478312 2.070522 0.369276 0.770297 -1.561766 0.438802 0.149948 2.301313 0.162356 -0.620638 1.066058 -0.595201 -0.259954 -2.493990 1.337363 -1.787502 0.184096 1.108990 1.919109
案 2.544419 0.257896 3.375326 -2.290025 1.702133 -2.247827 -2.862931 -1.170834 0.337632 -0.368469 -0.115910 1.312413 -1.007038 0.118712 1.360258 1.076223 -2.282295 0.216150 -1.787622 -1.403216 1.633765 0.393560 -0.042798 0.021177 4.859408 3.670369 2.103781 1.354476 -2.021690 0.044976 1.674993 -3.182855 0.563867 -3.905687 3.773658 -2.318911 -1.195251 -0.980255 1.820437 -3.395317 -0.781017 2.041677 -1.395528 -2.360035 4.267545 3.740888 0.459669 -0.214140 4.796741 3.575480 1.051923 -0.967083 4.191573 -1.512446 0.718707 0.307885 -0.072072 -1.890604 -1.630837 -1.553773 -2.969638 -0.444153 -3.234854 0.756586 0.798333 1.724627 0.495594 -1.036135 -1.156910 2.421130 -4.880692 0.141945 0.131799 -1.569771 3.670585 0.838217 2.706218 -3.216269 -3.303526 -1.907914 1.065425 1.703932 -3.856385 -1.956370 1.215055 3.416969 -0.407041 -0.333227 -0.027685 3.672223 0.904048 -2.284078 2.478433 2.410332 -1.921291 0.415076 0.697998 -1.416607 -1.128005 1.220076
同 2.857271 -1.226988 -0.365875 2.216506 5.055108 -1.291001 -1.699235 0.414863 0.265884 0.186221 1.463692 -0.585248 -0.627727 3.525184 -3.421775 0.841532 4.868202 1.413315 -0.605877 -1.506431 -0.705654 -1.408473 -2.228663 0.745325 1.046836 -2.176870 -0.610100 -1.277590 2.383960 -1.696257 -4.710334 -1.365000 -1.134311 0.840032 2.048436 0.548501 1.886667 -2.563757 -1.973514 -0.261509 1.447319 -5.463756 -1.886267 -2.602476 0.962321 0.004064 -1.745637 -3.585519 -3.245569 4.306939 -1.179898 -0.205595 -1.262138 -2.363667 3.535880 0.052492 -0.342276 -0.357002 -1.748744 -4.205408 -1.490060 -1.348998 1.244271 7.285563 -0.617655 -3.123398 2.036041 0.989239 4.056570 1.509495 -3.089695 2.361906 0.852779 1.253158 -3.732879 0.238530 -2.149237 -1.758331 1.988312 -1.339328 -0.023589 -2.602801 -0.513384 0.883375 -1.781992 2.371537 -2.322929 -0.886395 0.428489 -2.270695 -2.304223 1.584543 -1.414736 0.332869 -1.149695 -2.908299 0.795642 3.270161 -0.644146 1.517865
》 -0.638698 4.045500 -2.075524 -0.911537 1.805839 2.228027 1.216265 -1.567087 -1.495212 -3.095936 1.034500 -0.774609 -1.482559 5.961438 1.400382 0.650350 4.929221 3.018768 -4.488389 2.784722 -2.246686 3.375465 3.925262 -0.433655 -3.285248 -1.000130 4.010860 1.038911 -1.757558 -5.900114 1.722023 1.544728 -1.322409 3.056718 3.963130 0.420803 1.498248 0.188689 -1.054388 -5.127909 2.194912 -0.516903 -2.042330 -0.974659 -3.335935 -2.074281 -3.247720 0.656978 -4.192954 -1.043786 1.504412 1.990145 -3.683466 -0.005293 0.430517 -1.112727 -1.839310 5.823590 2.354229 1.791651 -0.782950 3.295027 -3.339371 -0.979374 1.273650 -1.729757 -1.453419 -4.963503 -2.306622 -1.005643 1.529505 0.271010 2.301002 0.062825 -2.392304 2.194988 1.528678 -1.030876 2.715427 1.042948 1.314939 1.464756 0.014626 -2.550045 0.285354 -2.389504 -0.326217 -1.236490 2.751019 2.148693 -1.631111 1.658170 -4.142526 3.211800 -1.599324 6.386132 -3.605328 -2.616449 -1.925336 -1.831332
十 0.449819 -0.080230 -0.687654 -0.920777 1.175098 3.884633 -1.973819 -3.687151 4.480959 -0.517559 -1.514471 2.822372 -2.009005 0.265103 3.784816 1.268877 -3.036203 -0.624153 0.999552 -1.879599 0.137265 2.275424 5.013958 5.440131 -0.532833 -3.714196 -1.912862 0.843279 -0.318882 -6.024346 1.671007 -2.418130 -2.796703 3.094080 0.484581 3.509774 3.780327 -2.104972 -1.224836 1.028313 -1.410060 -0.713651 0.754597 0.502414 -1.834202 -3.901369 0.241579 0.044189 -1.791191 2.030177 6.156667 2.324898 1.781121 0.149031 -1.824302 -0.386683 -1.910680 3.009450 1.406525 0.922436 2.514148 -1.643158 0.111086 0.270848 -5.069644 -2.067294 0.646408 0.234704 -0.181541 -0.785955 -4.729541 4.677969 6.892728 -0.609097 -3.168326 -0.060418 -1.556093 -0.656023 4.312751 2.507484 0.596941 0.229170 2.876235 -2.976909 0.696149 -1.020382 0.647880 -0.818479 -1.132164 0.069236 -2.546721 -2.493648 -3.316485 4.373657 -3.244952 4.328016 -1.964970 1.674642 1.243645 0.172964
《 2.590117 -1.096505 0.368207 2.192054 5.132443 2.570499 2.126175 -0.982599 2.006540 1.799369 0.871914 1.829475 -1.859573 -2.794907 -1.290137 2.834248 2.924232 0.656456 -3.019734 6.643115 1.593213 -1.007060 -0.190990 1.966888 -0.049689 0.127990 -2.941452 1.542907 4.698567 -0.932156 3.237701 0.860264 1.120225 -0.778955 0.699969 3.135258 0.759806 0.286486 -3.682591 -4.859231 0.618365 -2.211724 3.818846 -2.578524 -2.454243 0.029179 4.270874 -2.785039 -2.325377 -0.267749 -1.250589 -2.193355 1.177328 -0.540914 -0.600295 -0.359626 3.337659 -0.239315 1.002436 0.656950 1.855746 -3.117592 -2.337476 4.776374 -3.058034 -1.672614 3.136542 0.169763 4.672512 1.754717 -1.228761 -1.517556 3.209037 -0.894828 -1.137652 0.844339 1.095164 -1.591115 1.667982 1.665822 0.428352 0.689142 -3.932480 0.266816 -2.797564 1.051546 -1.816879 0.071198 -0.705294 1.045758 1.499699 5.185877 -0.605309 -1.105670 -0.945948 -1.094724 -0.786430 2.379995 -0.732321 0.525948
成 -3.839211 -0.547938 1.837668 2.743492 -1.984674 -0.921004 -2.444895 -2.009400 3.318841 0.415661 0.067300 -1.640896 -0.661659 -0.734208 -4.193109 0.602688 -1.422013 -0.142004 -0.150101 0.376537 3.448003 -3.563637 0.201291 -3.799036 0.802145 1.129630 -2.411165 -0.432673 -1.611771 -1.641995 -1.031281 0.998018 1.690089 -5.585697 3.516206 0.592293 -1.975831 1.797102 2.480747 1.451914 0.430046 0.023414 1.991450 -0.569917 3.386414 0.229040 -4.892056 -2.867947 1.171027 3.103506 -3.269913 1.668143 -0.370787 -1.948325 -1.786224 -3.672853 -0.782300 -0.431458 2.015602 1.563419 -0.552768 -1.552120 1.847763 -2.705270 1.538443 -2.080828 3.760030 -1.594363 0.959316 -2.110042 -2.635934 0.175067 0.654229 1.232943 1.969097 0.453930 0.340184 1.425173 -0.118591 0.943385 1.491124 -0.377194 0.179897 2.903286 -0.984586 0.924938 -0.425833 -0.108061 3.655829 0.459648 0.220795 1.305538 2.534301 -0.371802 -0.050493 3.313477 -2.506190 -2.828365 -2.272861 2.052666
向 0.379472 0.748787 1.386072 0.926621 3.581194 0.187274 0.568670 0.106554 0.546231 -0.754468 -1.625163 -3.791393 5.297637 -2.119938 3.593197 0.779456 0.567621 -3.507182 1.907200 -0.687553 1.493265 0.853938 -1.380104 0.554882 -2.374273 0.017033 0.080383 2.341687 3.196381 -3.071361 2.478726 -0.281595 0.241430 -4.357779 0.969805 3.157409 -3.093290 1.997131 0.951416 1.252043 -1.257011 -1.186334 0.588898 0.913790 -1.782136 0.896157 1.763231 -1.234349 2.115629 1.143376 1.504177 2.913178 1.322382 -1.621809 1.907152 -2.915306 -0.001786 2.710155 -1.535348 -1.261334 1.346421 -0.897550 0.870773 -1.289219 2.666700 3.225194 0.346648 1.834441 0.594545 -0.034413 4.097538 -2.564098 -0.373618 1.908579 -1.158397 -3.223060 1.836159 -1.350928 4.673653 4.370810 -0.421725 -2.935511 0.114201 0.052428 -1.878428 -0.366051 2.007962 2.454269 0.087652 -2.491736 -0.347512 -2.810735 4.522887 0.531346 -2.402313 -3.280611 1.444029 1.301562 -2.323606 -2.642705
证 1.057851 -0.642409 -0.783307 0.362915 -3.353771 5.741665 1.900476 0.158609 -1.605712 -0.324857 -0.397895 2.727984 -1.177340 0.055882 0.568695 3.169630 0.790972 0.833848 -0.381603 3.821152 2.279421 -1.588168 0.559946 -1.108903 0.228709 0.623625 -0.765430 -1.329955 -2.031505 0.099911 -1.140025 0.964662 4.206606 3.328934 -1.654388 0.484617 1.231103 2.128925 -0.433303 -4.385702 0.416416 0.154233 -0.581312 3.076125 0.616566 4.768517 3.148067 -2.177141 -0.568557 0.077847 1.388744 -1.802035 -3.015141 0.890700 4.128617 -1.744322 0.056548 -0.304526 1.082182 -2.419087 -2.646965 2.673086 1.558346 -4.143320 0.580581 -4.502919 1.473539 0.894899 2.069985 1.051555 -0.135759 -1.449974 0.843836 -0.795272 -1.934836 -0.847244 -3.447973 -2.020380 -1.828856 1.454863 -0.477638 -0.138460 2.510370 -1.490083 2.256317 -1.012753 -3.302397 2.323952 3.198151 2.858267 -0.643830 -3.982140 -1.405408 -3.284036 1.795147 -1.859042 -3.910666 1.363162 -0.727617 -3.468227
务 2.753882 -3.814049 -4.153669 5.326406 1.593739 1.676027 -3.063325 3.501916 0.547968 0.526259 0.061260 -0.643567 0.141588 3.715987 1.197218 -1.496438 0.962475 1.168048 -1.842777 3.151659 2.432353 -2.032533 0.250059 -1.313297 2.149295 0.702777 0.742379 -1.957327 -2.582560 1.054062 -4.091603 -2.075422 2.054461 -1.597810 0.285861 0.932545 4.690709 0.942217 -4.591271 1.897173 -0.385881 2.020179 1.906125 1.766039 3.488826 -2.527632 0.134161 3.886083 -2.883250 -2.759787 -0.884222 -3.230400 -0.662786 2.026763 -0.023964 -0.670473 1.935446 -2.880221 -0.556557 0.296656 0.828047 0.619852 -2.140945 -0.869196 -1.009182 0.403388 -3.093139 -0.957830 2.229415 -0.486584 -3.297547 1.169902 -1.570953 1.067669 2.141172 0.256450 -1.675418 3.157562 2.265472 -0.417201 2.189200 -3.620668 -0.256850 -1.251283 -1.842466 0.873575 -2.949484 -2.762824 2.003431 -6.560700 -1.337260 -0.012454 -0.345868 0.578943 -0.350218 -0.792612 -3.440533 -0.418363 0.084202 -2.773597
之 0.943364 -1.279553 1.593467 -1.417034 3.931279 -0.662364 -2.757120 0.759925 0.516451 -0.203174 -3.126643 3.887340 -2.620402 -0.798338 4.352288 -2.624002 -2.044579 4.391033 2.964553 -3.749954 2.388920 0.237758 0.171764 1.024546 -2.861577 -1.573012 -0.675397 -1.484595 0.936871 -1.523639 -2.775308 2.157713 2.955826 -1.873175 -0.728030 0.850681 1.201091 -1.667885 0.996209 -2.116318 -0.173738 -1.433276 5.701848 0.186389 1.004316 -0.987886 2.421696 2.447841 -1.944884 -0.554674 3.540336 3.811278 -2.169675 1.266714 -3.711139 4.505715 1.172300 2.541828 0.509089 -1.608676 1.829131 -3.940648 -1.635443 6.492099 1.158974 -6.428139 -2.697043 -1.155051 -4.592538 -0.779433 -1.536226 0.146416 -0.518758 0.638501 -2.141303 1.614071 -1.740222 -0.055838 1.495665 0.877606 3.496841 -3.027732 0.074146 -1.450002 -2.810801 -0.954074 0.357407 2.549995 3.788140 1.269705 -3.170742 -0.720168 3.720184 -1.856323 -1.120351 -0.392216 2.698787 2.171635 -0.481460 -0.811286
有 1.890044 -5.024442 0.121954 -2.574023 1.781818 1.534990 -1.086118 -3.345151 2.691042 -0.493561 1.853152 1.854931 0.720348 -0.942548 -3.252197 2.423231 -3.242085 1.431986 -3.380533 -1.892831 2.534409 -2.369636 -4.013020 2.114252 -2.779095 -3.725510 -2.510175 1.671707 -0.809768 2.035088 1.249092 0.596072 -0.226583 -2.010439 7.533141 0.017078 -2.470616 0.597548 0.803609 -3.022290 0.127525 -2.761505 2.102165 1.821031 1.149966 3.386749 -1.549587 3.238217 -1.693542 -0.878421 -0.945877 -0.916125 1.511888 3.602348 -1.101797 -4.144384 -1.067609 2.128177 0.718151 2.627545 1.030669 0.971627 0.491881 -3.031783 -0.337572 -2.145029 -3.262588 -1.308669 -1.445637 0.370939 -1.646775 -0.503655 0.885060 2.942254 -0.926298 -3.431400 -0.202209 -0.793255 3.273170 0.476768 -1.279953 -1.931609 4.824440 0.594130 1.205446 -1.883175 -4.193900 -0.031800 1.228164 1.101030 1.713990 -1.943777 -0.397889 -0.593009 5.064282 -1.957551 -2.932637 1.124060 -0.901526 -4.543821
付 3.950973 -0.147231 1.248101 -5.136500 0.445424 0.306608 -1.444749 5.555104 2.349949 0.545943 2.348537 -1.085424 3.380966 2.397298 2.248411 0.658549 0.359064 0.277183 2.908813 -3.487823 2.739830 -0.934458 -0.852763 -0.707372 -2.351203 -2.696322 0.990751 -6.908329 -1.428940 -1.767380 0.153926 -0.395907 0.310680 -1.805178 0.333895 4.391398 -2.436911 4.802901 0.291020 3.846027 -3.758845 2.669474 5.169791 0.687621 -1.118929 1.708115 -1.561561 0.679110 -0.765035 2.561722 1.485768 4.267590 -0.020623 0.704483 -0.994357 4.476868 2.456702 -3.353784 -0.068253 0.157381 -0.750470 -2.742006 2.966454 2.033100 -0.665295 -1.803898 0.156091 3.533457 -1.129395 0.697104 -3.567449 -0.771950 -1.286585 -2.019527 0.565284 0.220487 -1.135596 0.213562 0.388189 -2.318532 -2.066157 2.269454 0.219269 -0.215358 -0.282561 -2.598244 -0.908346 -1.391769 -0.938203 -1.845850 -2.214475 4.449149 1.301267 0.019751 1.791112 -2.638566 -0.769468 -2.450584 3.148836 -0.856967
合 -2.368296 -2.954417 0.619201 -4.219594 0.239003 4.182949 0.082369 0.712322 -0.002872 -1.918963 0.004044 1.468488 0.188833 1.649868 1.910497 -0.887477 4.178998 -0.603054 -4.622420 -0.925756 2.522382 -4.884826 -1.775288 4.555558 -2.090594 4.647077 -0.711771 -1.557545 -0.974911 0.715938 -0.404177 -3.210196 1.061226 1.207116 3.099249 0.183652 3.892818 -2.598659 -0.930326 -4.518647 2.969142 2.601213 3.640709 4.442905 0.625051 1.411595 -3.964124 0.599017 1.247665 1.130910 2.786446 0.587495 4.982696 -3.219018 -2.555485 4.054990 -0.532787 2.535300 1.090576 2.348673 1.962314 3.773984 -2.119886 0.789931 -5.035606 1.219975 1.432404 -3.456610 -0.358436 1.538754 1.725355 -3.307989 -0.303239 1.300806 1.794334 -2.331002 -1.718280 1.017353 -1.496152 0.982933 -2.089586 1.842222 -3.568621 3.161211 -0.899667 1.386188 1.153454 0.546072 0.922215 -1.238213 -0.204555 0.253524 0.501304 -0.464984 -1.140308 0.834125 1.080561 -0.328595 -1.233456 -2.187391
万 -0.846858 -0.207184 -0.077927 -2.949787 -3.946591 -0.141184 -1.539280 1.432285 2.322223 -6.998250 3.334367 -3.775919 2.620288 1.035313 2.013944 -0.777079 -0.245353 4.128800 0.011758 1.179377 0.863429 0.013346 2.821847 0.802200 -0.782625 1.860101 1.374421 -4.477624 1.538885 1.942240 -1.595511 0.843171 -1.304066 -1.332818 -0.751518 -1.064706 -2.230708 1.151288 0.468978 -0.450903 -2.258267 2.995095 1.057762 -1.841584 -1.514106 4.549522 -1.279611 -0.039637 0.895541 0.336009 -1.068901 -0.900658 -0.410274 0.328345 1.913791 1.593433 1.270066 0.561113 -1.997575 0.460566 -2.109963 -1.198488 1.396233 1.113375 -1.015771 -1.172429 0.841339 4.569566 0.006568 0.097388 1.992092 -1.300226 0.035485 -0.799338 -0.545512 -3.346234 2.129577 2.844231 0.691135 1.329403 -2.245987 -1.713059 -1.421391 -0.589403 0.085806 -3.015258 2.490915 1.005504 -2.473204 -2.628406 -0.107515 2.707039 -1.250139 3.776509 -1.929487 1.829432 2.327085 0.301801 0.445884 -0.830019
华 1.652339 2.857971 -2.806103 2.206048 2.777972 0.443948 -0.488188 0.342143 -2.898673 -0.336223 2.644371 -3.360296 0.330876 0.725385 0.095563 -2.199355 -1.076510 0.516922 -0.413867 2.334047 -4.899523 -0.274467 3.493603 0.657819 -0.448453 -2.376230 3.821462 -1.133488 4.265508 2.565683 2.661788 2.268140 -0.516489 -1.872470 4.093447 -2.579130 0.538041 0.891092 1.847510 -5.242068 -2.020575 -0.566742 -3.149270 -0.496270 -3.060961 -0.779026 -1.550282 -1.190045 -1.755349 -1.777252 0.457915 -2.350076 -0.593139 -0.008187 4.448893 2.677252 0.254908 -1.360178 1.515830 -0.667207 -2.915148 -1.246139 0.286623 4.621849 -0.828607 4.892116 -2.723183 -1.452992 0.880392 -3.612047 -0.883688 2.386361 -2.059487 1.978962 1.301237 2.842689 -2.143086 -5.023421 -2.507182 -3.445974 4.507081 -2.692773 3.910217 -3.948850 -3.029324 -1.026113 -4.379919 -3.762494 1.094773 3.889502 0.897289 5.510104 -2.118413 -6.086047 -2.114141 -1.440149 -1.186965 6.375857 -2.433374 -1.050278
讼 3.729860 2.191169 -3.224736 2.541070 -3.931878 1.059504 2.008920 -0.385329 1.157026 -1.398973 0.228901 1.629169 -4.147036 6.256471 3.062145 -0.667408 2.503281 0.433917 -1.745510 1.463858 2.046816 -6.230737 -1.770402 6.069250 0.370109 0.316226 -3.313388 3.879895 -0.274572 1.918173 -0.010089 2.505372 -2.784140 -3.388568 -0.028277 4.235113 -1.237969 1.912916 1.253234 -2.100534 -1.926325 0.414475 -0.873251 -1.856768 2.118270 2.091638 2.610410 2.307390 -1.283947 0.311120 -0.980042 -0.992008 3.131336 -1.159570 2.961734 1.110373 -4.331056 -1.007539 -0.800189 -1.258570 -1.509131 1.150861 -3.274153 1.215276 -2.769200 3.451707 1.888434 -2.228100 0.776865 -3.018632 2.418197 3.569588 5.271153 -2.172123 0.817976 5.884711 -4.100365 -0.409300 1.986920 4.136789 3.228115 2.133293 1.797767 -1.529999 -0.987218 0.292916 -1.772682 0.021949 -0.791764 -2.166089 -9.065259 -0.061794 -1.856718 -0.475362 2.492191 -3.208529 2.380937 0.818820 -0.736010 -1.381358
出 -0.085165 -1.408683 2.179328 1.999388 -2.592494 -1.062143 -0.979430 -1.185481 1.695059 1.282188 -2.685328 -6.164017 3.614504 4.626040 -1.089444 2.450474 -0.738356 1.441568 -0.583252 2.641263 -1.789344 2.959635 2.068421 1.385720 -2.719153 -2.357486 -1.963036 -0.635437 -2.235249 2.865583 1.203634 1.718253 -0.857682 0.808928 2.234061 -0.088470 -2.008928 2.380873 -3.520809 -1.206945 3.147781 3.633895 0.715446 1.005314 -1.799516 3.763095 4.789396 -1.064427 1.747769 4.499075 0.250623 0.139436 -0.117228 2.901297 -0.827436 1.687253 -1.368301 0.590919 -1.339040 1.453544 0.525975 -3.631993 -3.323944 0.953974 -1.730740 4.466239 -2.142688 1.476458 -5.818549 6.020132 1.949657 -0.991573 4.096402 2.825510 3.079492 -2.601162 1.202672 -2.873565 0.279758 -2.562776 -0.326318 -0.466970 1.488204 -4.689366 0.974399 -2.171018 -3.024703 2.540318 2.460084 -0.558029 -1.900653 0.537261 2.853058 -1.179984 -1.359444 1.338282 -2.363015 -1.190303 0.924915 1.232973
国 1.977435 2.398219 0.121640 0.178289 4.367701 -0.028557 2.230244 -7.672227 3.873880 0.620025 -1.150083 -4.362482 -2.413510 1.757768 -0.514714 1.239614 0.945982 -1.875771 -5.235454 1.846179 -4.422781 -3.857667 -3.719888 0.603309 1.533008 -6.001637 2.931587 1.592658 1.255006 -2.412965 1.129859 -0.582771 -3.145711 2.752101 2.289329 0.550866 7.050164 4.589405 2.361142 -2.307712 4.983767 0.151768 2.559566 -3.777137 -0.576620 -7.361732 -3.124232 -1.439296 -1.236495 -2.668663 -2.431176 -0.838014 4.383568 -0.865405 4.334706 0.137872 -0.386305 -3.204046 -2.126563 4.501754 -4.766131 -2.661883 1.286746 3.579162 -1.337307 -0.581692 3.468507 0.125810 2.123025 1.466596 -1.467504 -1.993580 0.129807 -7.282845 -0.449550 0.303281 4.501064 -1.421193 2.398595 0.944797 5.295515 0.707467 -1.276041 -2.586712 -2.913050 1.239732 0.150884 -4.741338 3.387968 -1.239480 -2.226099 -2.010658 -3.870168 -0.799167 1.936466 3.320596 3.999011 2.511453 1.587596 3.096358
司 -2.022499 3.737146 4.188228 -0.993380 -1.742284 2.067573 -4.107784 -2.206388 -2.265905 -0.161729 1.811182 -0.563221 -3.246470 -1.422876 -0.679908 2.115126 -0.316063 -2.853487 -1.016126 2.171321 0.548497 2.590608 -3.391282 -1.134670 -3.648794 -0.144023 2.085990 -0.072445 -4.615432 3.453613 -3.684824 2.984053 -1.121137 -0.256448 1.937315 -4.158481 4.348711 -2.700972 -0.905654 -0.968424 -2.699983 -0.194503 3.350987 0.231230 4.899903 -0.574236 -4.560811 3.171887 -0.245439 2.660938 -1.520353 -0.960437 -1.593787 0.763659 1.623734 0.327773 0.860006 0.776861 -3.064231 -1.603334 -2.910394 -3.004395 0.505942 -2.183551 0.239299 -2.947661 -2.453193 -4.721550 -1.335014 -2.614809 -2.001211 1.189786 0.305283 2.671376 0.019113 -1.224440 1.116370 2.757875 3.831797 0.250264 -0.325643 -0.152302 0.266123 3.085144 -1.649951 -3.156278 2.741785 0.026440 6.966061 0.245130 2.056650 -4.218062 0.091771 -4.122457 -1.617540 0.536395 1.856511 -2.560713 4.321979 -0.772312
律 -3.343498 0.599919 -0.005666 -1.039174 4.577885 -1.849393 0.545637 -4.373450 -0.478829 2.967361 2.659768 -3.100432 -3.130780 -0.221930 1.305208 -0.292660 1.606670 -3.463873 -4.028072 -2.630048 0.860540 -1.335764 3.125748 6.080528 3.613014 -1.964381 -1.338062 -2.249402 -3.711290 -1.852991 -3.274394 0.733760 4.169421 1.345970 1.304654 -1.470395 1.831761 -0.608359 -0.807865 0.441946 0.238333 1.729085 1.720219 -2.022609 0.227835 3.085223 -3.951725 2.754821 -1.399578 0.675919 -1.377839 0.634231 2.990832 2.132923 -1.320842 0.739073 -1.097285 -2.399552 1.448332 0.961785 -0.132633 5.185950 -0.467817 0.798443 -1.868144 1.063402 0.013536 -5.465235 -4.991378 0.689165 -1.063044 -1.269097 -1.027086 0.292423 -2.145437 -2.028698 -2.974846 1.573928 2.482094 3.773468 1.672034 2.179673 0.374768 -1.201395 2.748078 2.867195 0.683473 2.620201 3.970011 4.477550 -4.374144 -3.107635 0.358996 1.672874 4.826091 1.570265 0.594503 2.008373 -1.421811 -0.677750
不 2.324818 -4.640764 -0.212831 -0.800692 2.571087 2.779399 0.809518 4.906378 -2.576725 -0.201881 -1.796499 0.933386 -1.098828 1.672331 -2.103068 -3.472901 0.991084 4.048718 1.943061 0.665493 4.190563 0.958824 -0.221428 3.111852 0.388066 0.310009 0.363913 0.929118 -0.892096 2.740664 -0.907256 -1.479056 2.483115 0.960446 3.644898 4.772722 -4.000719 0.157540 2.676336 -1.184242 -1.952471 -1.632617 -0.659913 1.989954 1.181732 2.590881 -0.135106 3.105270 -0.944194 0.665192 0.046084 -4.402814 1.200550 -2.810275 -0.691186 2.624873 2.200436 -0.606846 0.503484 -3.213747 -0.565363 1.294335 1.595372 -2.749903 -1.066321 -2.706112 -0.749478 1.829924 -1.063641 1.024896 1.251747 1.031328 -1.649310 0.305880 0.508941 3.666434 -0.936193 4.000828 -0.009984 0.546520 -1.362457 -1.634636 -0.965622 0.476369 1.007776 2.888228 -2.959976 1.541433 0.183669 0.823284 4.392546 -2.156749 0.451407 3.685569 4.658690 1.308354 -1.544201 -2.070106 -3.278989 0.602751
担 4.676056 -2.815597 3.023257 1.018610 0.743281 5.557066 1.371734 -0.291616 0.547002 -1.185346 0.957395 0.216728 3.126900 3.539327 2.199738 0.774100 1.399838 -2.907342 -3.198506 -0.383519 3.038734 -3.000763 -0.758790 -1.780231 -2.359144 -2.090135 0.367280 -2.042724 4.025206 2.312690 -0.691817 -2.811879 -0.024231 -0.949586 -4.249604 -1.489297 0.855714 1.202955 -0.956822 -0.464588 1.901715 0.562238 -1.100745 1.571007 -0.805342 4.381306 -0.798686 -0.167514 -2.492606 2.026384 -0.538531 -0.425342 0.596997 -2.113699 2.681537 0.012510 1.380281 1.006461 -3.573210 -2.193833 -0.491820 -1.388543 -2.590408 -0.129512 -0.237347 -4.281179 -0.916359 1.110161 -1.401910 -3.679516 3.106269 -0.146969 0.414866 -2.185304 -0.660074 -1.549908 -5.903852 -3.124326 0.748671 2.438252 -2.685602 -2.072527 -0.178084 0.691752 2.631199 2.574187 0.477478 -1.635414 4.213524 -2.476883 0.507940 -1.586433 1.375379 -1.281365 2.180304 2.439255 -4.247607 3.441760 0.193077 2.171150
书 3.274224 0.304271 -0.042444 -1.262124 2.817845 3.355123 0.229563 1.549575 -1.227377 -0.781401 -2.201855 0.277887 -4.463479 -1.022534 -1.950010 1.049795 1.831598 0.753900 -3.799470 1.288805 0.702209 -0.231928 -1.162335 3.752831 -1.464438 0.038878 -1.570286 1.882082 -0.920689 0.595832 -1.956571 3.546666 -3.840200 -0.116199 -2.247334 -1.317541 -1.366371 -0.894224 -0.854436 1.163490 1.649513 -2.175666 -2.858876 0.363904 2.038773 -3.519437 -2.028847 -2.533874 -0.538315 -3.118780 1.740350 -0.024925 -1.837481 -3.056963 1.494568 0.003061 1.861867 1.273913 1.353452 1.461869 -0.637890 -1.789824 -1.804091 0.128243 -0.134124 -1.218664 3.754187 0.795099 0.131381 -0.734122 0.390064 0.932339 1.645802 -2.175038 -1.495814 -2.383542 3.299696 -1.567180 -3.289797 1.845033 -2.183162 -1.578932 -0.687144 -2.599030 -0.759163 3.865603 -2.797305 1.796847 1.810742 -0.836303 0.620897 -2.989512 -1.147909 0.527880 -0.474581 -1.032614 -2.595646 -3.169974 -0.404481 -1.951863
以 -2.403219 0.553465 1.216757 -2.515021 1.087700 1.938678 0.611293 1.070127 -0.711270 -1.364957 -1.423722 -2.167884 -0.934822 -0.399423 -1.241023 -3.219158 2.142184 1.591008 0.438716 -0.207328 4.005799 -1.376259 3.031476 0.878196 -0.419996 -1.424477 -0.322549 2.952073 -0.945107 -0.372993 -0.571744 -5.201499 2.223282 -1.991505 1.148611 1.946493 -4.696651 -0.978432 -0.570408 -0.223393 -0.932535 -2.491580 -0.771914 0.540440 -3.526520 3.308363 3.210666 1.358774 -1.082636 -0.631763 -1.818524 -2.188169 -1.456897 -0.366646 1.838117 -0.478384 6.570330 -0.927815 0.645423 -1.565646 2.466024 -2.635395 -2.620774 1.436820 -1.565612 -0.267504 -0.167839 1.103155 -0.752969 -1.734009 0.639802 -1.350895 -0.547444 3.631661 0.935994 1.240474 -0.690476 0.922846 1.043431 -0.372852 0.293186 1.122569 -2.725447 -2.945685 -2.436493 -0.761347 -3.567448 -0.504632 3.192046 -2.032464 0.472661 -3.250240 -0.879534 -0.775906 1.634642 -1.757801 2.535313 -0.276466 -5.919381 -1.631194
支 -3.224611 -1.724761 -6.552465 0.637343 0.570463 -3.219056 0.382313 -1.803709 1.352178 -2.269287 2.787174 -3.460864 2.937423 3.430050 -0.942852 -3.830424 -1.891954 1.394604 1.514487 1.327812 -0.059585 3.265303 -1.781778 -1.806411 2.479083 -0.104689 1.103290 1.105748 2.298584 -0.700293 -2.000985 -3.705115 2.465387 0.997742 -2.554204 0.594864 -2.526540 0.099276 3.823874 -1.781966 0.046289 0.287460 -2.059021 -3.146238 2.679932 3.138654 1.966158 0.172742 3.841942 -4.759111 2.004155 2.589809 0.869038 3.708575 1.760416 1.567787 0.793456 -1.675295 -0.581911 1.890210 3.900349 3.213456 0.070185 0.211588 -1.087298 -4.865172 1.202471 1.251559 -0.717373 1.557271 1.637953 3.247427 0.365457 0.303720 4.028724 -2.290631 -2.173242 1.077973 -0.660800 1.343781 1.215448 -3.064862 0.955289 6.386848 -1.099260 2.987311 2.881243 0.391782 1.432542 -2.639704 -1.089238 -3.174060 2.609987 0.719378 -0.191678 0.201327 2.282841 -0.198630 -2.377904 -0.075159
6 0.340779 -0.621912 0.444292 -0.255532 -2.408579 -2.365910 -2.187852 -1.245253 1.042335 -1.732605 0.416555 -3.197712 2.234101 0.576033 3.326098 -2.233304 -1.064377 0.617705 2.228009 -0.045809 2.146573 0.221629 3.099283 -0.613629 0.166481 -0.039369 -0.769765 -1.883330 -1.439985 0.545264 0.426915 0.449701 -2.520062 -0.758621 -0.701613 -0.980190 -3.672857 0.473498 1.879136 -0.808638 0.028874 -1.716443 -1.651781 0.270303 0.054704 0.553359 -1.470784 1.444948 -2.731512 2.327250 -0.719165 2.670191 -1.875433 1.257226 1.345126 -1.840145 -0.786758 -1.313630 -0.124403 3.074682 0.211900 -0.933086 -0.837860 3.245466 -1.292765 0.708182 -3.390688 1.697898 2.939152 0.086016 -1.013237 -0.772429 0.401198 0.937666 -1.691440 -2.761197 1.964722 0.840611 -1.328189 2.020683 -1.574869 0.612221 -0.801050 -0.854360 0.283082 -0.737144 0.046155 0.613613 -0.164936 -0.814967 -0.598587 0.033969 2.515100 -0.889256 -2.535325 -0.624565 1.856182 0.393537 1.259679 0.038800
9 1.732477 -2.377720 0.654170 -1.100356 -2.793896 -2.284139 -1.232921 -0.606621 0.895816 -1.552401 -0.649174 -1.953205 1.170628 -1.751195 2.549160 -1.256673 -0.716319 -1.345450 0.091066 -0.118982 0.675937 -0.754100 3.077516 -0.778443 0.759931 -0.241559 0.630163 -2.167170 -0.789976 -0.015428 2.033997 1.560494 -1.716003 -2.311787 -2.493688 -1.688173 -2.284697 -1.058202 0.398185 -0.642968 0.166538 -0.487550 -2.246673 -0.011455 -0.802974 -2.314535 -0.878964 -0.016128 -1.214452 2.653162 -0.012904 2.929396 -0.986538 0.988066 0.786119 0.129421 -1.451565 -0.259331 0.754105 3.999863 -0.290536 0.101952 -1.123477 2.036025 -1.552512 2.422554 -2.874031 3.223640 3.132864 1.277488 -0.141373 -1.053038 0.472034 -1.046809 -2.861779 -3.187447 2.863411 2.006144 -1.933280 2.878330 -0.505456 -0.711120 -0.722320 -0.365267 -0.649330 1.263626 1.124123 1.174026 -0.789476 0.324848 0.470782 -0.039088 1.228833 -0.897240 -5.299749 -0.436356 2.438344 1.591745 2.919074 1.919141
和 1.263203 -0.316844 -1.995304 0.148612 2.604701 0.504733 -0.171957 -1.265441 -3.515881 -2.872521 0.111021 -0.123733 -3.750081 4.522839 -3.671242 0.289911 0.354601 -0.380416 -4.121896 -1.182439 3.845385 2.080272 -3.805477 0.585705 2.667742 -2.361741 -1.397830 -3.117691 2.237805 -0.146194 1.428510 2.270295 -5.192381 -1.046117 3.473989 2.805901 5.491894 2.433618 0.988321 -2.324975 2.730643 -0.641349 -0.978815 -5.048954 -0.364998 -5.187210 -2.412741 -0.912574 -5.559605 0.187224 0.849960 -1.901030 0.590177 -0.745249 -0.246105 -2.710803 -4.710655 1.520200 -0.024100 3.820934 -2.398738 -2.657437 -0.025946 -0.624376 -0.684585 4.169839 3.272581 3.313551 5.057844 -3.016633 3.501164 -2.013353 4.089941 -0.787661 -1.380933 -1.614028 -1.477031 -3.194335 3.012242 3.910433 6.512443 1.966046 -2.731816 0.106002 -1.356412 -1.405735 -5.225485 -2.719442 -0.193094 0.439101 2.753541 -2.031401 -1.621783 0.641092 4.453624 -1.253177 -1.625842 0.085895 1.306497 3.705874
约 1.450747 -1.635281 -5.116910 2.691684 -0.757193 3.247797 -0.357776 3.579413 -0.146192 1.153895 3.219495 -5.711318 1.547838 1.709662 -0.169148 -2.932532 0.893221 3.189615 2.865652 -1.433530 -0.803583 1.579605 0.082583 0.252889 0.446807 0.757441 -3.461853 -1.096092 0.301090 0.756948 -0.402261 -5.457620 1.045384 2.384531 2.097128 0.783301 0.148291 3.194669 -0.028230 -2.139891 4.928231 -0.611606 1.656209 -1.453275 -0.436929 1.294092 1.218237 -3.266662 1.125190 4.795988 2.248167 1.389264 2.005000 1.267612 -2.692278 1.736996 5.990439 -5.565468 -2.495577 -3.018729 -0.237613 0.912947 0.825788 -0.157889 -4.111371 -4.960784 1.269410 1.366430 -2.896845 -2.506760 -4.453078 0.312171 -1.622815 1.597497 3.316815 -4.619248 -0.437281 1.423045 0.532725 1.555964 -4.389866 0.824049 -2.652642 -2.824551 -2.599397 -1.957504 1.725342 1.582507 1.019584 0.019198 -1.331073 2.063670 -1.047572 -1.445338 3.254460 -1.712457 -0.730215 1.033701 2.244619 -2.113318
某 -1.382322 3.232682 -0.339549 -2.006450 4.171408 -1.578733 0.470703 -2.199342 -1.669319 -1.650176 0.797816 -1.212625 -1.312235 1.205788 1.604012 3.086910 -4.736145 -2.021409 3.697168 -1.454842 -0.759620 -2.033375 -0.371503 -1.068780 -1.114801 4.874537 -1.730276 1.424281 -0.605155 1.069165 -2.682740 2.004702 1.333460 -0.941575 0.944207 -0.524757 -3.079648 1.524264 -0.350267 -0.690333 -1.524401 0.372773 -1.398658 2.940803 2.090968 5.365682 1.073606 2.146758 2.955372 0.798764 2.181942 0.040038 0.053201 4.370890 2.310023 0.048633 -1.033111 1.993252 -3.444243 -3.450259 -1.208639 -1.706056 -0.693055 -0.715311 -0.370636 0.688077 0.905046 -1.573501 2.759860 -1.674433 0.379711 1.228357 0.278666 -1.701568 -1.431670 1.564893 3.131460 -1.611109 -0.519084 -1.780695 -0.356216 1.072760 -1.062889 -0.034799 -1.144243 -1.257326 -1.422834 -1.518258 1.309855 -2.126084 1.204421 1.194507 -1.255414 -0.510745 -5.356286 -0.393170 0.196729 -0.228135 1.759679 0.983476
按 2.169117 -4.362468 0.973815 -5.396834 1.214807 -0.705643 3.271315 4.619983 2.398135 -5.580948 1.056143 -0.381859 3.085397 1.618210 -1.610512 -3.728626 0.968416 -1.260670 -0.648839 -0.337037 -2.725145 2.457421 -0.521728 -2.544320 -5.443179 0.939980 0.041112 0.668075 -1.062336 2.465639 -1.792291 3.145665 -5.211803 3.112904 -3.508327 0.530775 -0.561525 0.639691 3.113845 -3.615006 -4.713860 -3.900535 -1.174421 3.152928 0.935926 -1.372358 1.886063 1.093457 -2.562246 3.690758 1.256164 0.504013 0.572825 -0.074263 1.593575 4.041815 0.087959 -2.254107 -0.085406 3.058359 1.724270 -2.638121 1.546744 3.727779 -2.259394 -0.847247 -1.284937 6.513206 0.693440 -2.908863 1.595348 -2.359924 -2.391480 3.292391 0.201811 -1.336116 -0.690918 -6.065112 4.861055 3.685608 6.085716 -0.508034 3.378745 -2.008525 -3.591525 -0.533083 1.413190 -1.954531 4.786388 -3.625370 0.506476 0.607009 0.744835 1.174854 4.628185 0.652079 -0.157305 0.760136 -1.404238 -3.512270
共 1.589033 5.966440 -3.002531 -2.306658 -4.146897 3.395625 4.854776 1.522035 -4.021131 -1.115490 4.213563 -1.327301 -2.728357 -2.154632 2.372400 0.535695 2.801513 2.926881 -2.609641 7.792653 -1.357145 -1.786214 3.425786 -0.410081 -2.486643 0.674190 -0.735794 -3.192286 1.708699 1.481427 4.278628 1.074147 2.273187 -0.141736 6.338881 0.479944 8.529488 -2.406974 0.831445 -3.429432 10.511544 -1.319129 2.345050 -2.360282 0.325241 -0.207602 -3.132726 -0.136894 -1.892145 1.819657 0.891108 1.842601 6.624144 -2.957991 1.310032 0.582257 1.690359 -0.464436 -4.550659 7.228982 -0.144699 -0.739271 -0.233818 4.064821 -0.690881 4.474111 -0.283010 1.221522 4.031964 -5.831675 4.223879 -2.266749 0.079172 0.721499 1.228349 3.422084 4.897297 -3.513335 0.136015 3.080183 3.746046 1.498933 -0.245763 -0.069970 -2.408952 2.327723 -1.607418 -0.690308 2.556733 0.278555 -0.463289 -1.595273 0.226871 -0.442093 -0.819495 4.200013 -2.831287 -5.133091 2.307447 -3.848580
当 1.011410 -7.559629 -1.856298 -4.727446 1.960311 -2.128947 1.366214 -3.751411 0.269031 -1.875628 -0.504995 -3.443206 3.755358 4.106027 -2.341581 -1.056530 1.188444 6.076636 -3.554710 4.134419 0.360414 -1.675375 -1.084947 1.750548 -0.297742 -3.247007 -2.791242 1.721881 -1.535479 -0.494704 4.226315 2.153795 -1.237831 -3.035700 -2.286434 0.882618 2.750540 1.781027 -3.580862 2.628346 3.210377 2.539521 -0.558725 -2.132123 -0.576771 -1.001456 -1.377497 -0.132273 0.356619 1.814829 0.105770 0.039813 1.176204 0.696789 2.261860 3.201030 1.102354 -3.198323 -1.084777 -2.174414 -2.533705 2.362802 0.704308 0.937874 -2.679970 -1.833899 5.275921 -1.218597 0.322125 -4.957745 -1.191989 -0.234444 -2.486474 2.974180 -0.804131 1.698230 2.748227 1.763304 -3.525723 -1.496289 0.356832 0.228217 1.738854 0.085657 -2.659093 3.535748 1.040505 -1.756439 0.368179 1.058995 0.543135 -3.833623 -0.863234 -5.311562 0.447884 -2.747897 -4.324832 -1.124229 1.198610 3.205672
8 -0.104304 -1.987147 2.001320 -0.497007 -3.787079 -2.092388 -0.639048 -0.442547 0.804701 -1.691132 -0.465350 -1.461568 2.356358 0.065830 3.448732 -0.078148 -0.219479 1.229407 1.949150 -0.482856 1.592769 -0.309432 3.780704 -0.340015 1.301662 -1.113820 0.197370 -2.071178 -0.236797 0.077232 0.971391 0.092573 -1.202312 -1.693454 -1.249910 -1.086753 -1.610993 -1.089031 0.609404 -1.102054 0.544954 -1.475325 -1.647144 0.917149 -1.590926 -0.772310 -1.422505 0.202826 -0.424683 2.917606 -0.715627 3.962823 -2.283502 2.429974 0.766061 -1.578924 0.736747 -2.099613 -2.197274 4.066804 0.936922 -0.226707 -0.500749 1.790289 -1.293084 1.508424 -2.879645 2.944629 3.411673 0.478459 -1.019546 -0.330208 1.751172 0.161377 -0.779754 -1.646197 1.971868 1.576722 -1.909989 1.906762 -0.001856 0.335794 -1.451856 -0.267557 0.113282 -0.349314 -0.408820 2.772176 0.199104 -0.999857 0.411329 0.655825 1.236908 -0.491642 -4.747569 0.793352 2.580334 1.839190 2.698629 0.177629
起 -2.175590 0.409316 3.273972 0.726146 0.730163 -2.712454 3.409455 1.437282 1.740457 -2.443113 -2.609161 -1.628678 3.327929 4.996737 -0.707814 0.358046 2.041363 -0.842512 4.231509 3.061696 1.086552 -0.424285 0.582146 1.934836 0.077669 -1.575567 2.819099 3.318748 1.007346 2.271200 0.872762 -1.908976 -1.196927 0.012593 1.277122 6.744529 -3.041739 -3.346423 -2.415639 0.653987 -1.466513 3.764138 -2.006321 0.955003 -0.580487 -1.969091 -0.414376 -3.015535 3.836321 -0.989773 2.784996 3.180078 -2.803431 2.949329 -4.008590 1.966890 -0.827197 -3.023337 -1.352798 4.424451 0.373908 -3.422961 0.362985 -0.674539 1.702545 2.270404 -2.513450 -0.174380 -2.542094 3.254892 2.018596 1.498717 -0.716958 -3.868291 -0.963593 -0.128776 1.678597 -4.749572 0.310445 -1.111178 1.797007 -4.282494 2.387222 -4.081824 -2.304852 -2.932522 0.252171 -0.897157 0.758974 1.834957 -3.328740 -2.956300 -0.895335 -0.007491 -2.342474 1.384272 3.931235 -0.319451 5.104625 5.071827
在 -1.381373 0.503978 2.155463 0.145270 3.172048 -1.001945 0.938902 2.219774 -2.231157 -2.599025 0.213648 -1.138305 1.812788 0.401184 -0.071062 1.922306 -2.777580 -2.338764 2.475670 -2.349445 1.463469 -1.061230 1.060401 -1.059605 0.854726 -1.787143 -2.166726 3.403273 -2.236015 -1.286149 2.101317 -0.791577 -2.052288 0.867762 -2.589923 -0.463887 0.825132 -0.830419 3.349243 -0.282380 -0.576364 -1.544631 -1.243095 0.163474 -0.624597 2.538074 2.190395 -1.948799 0.691446 3.442117 -0.935618 -1.064174 -0.341147 0.899683 1.156138 -5.230958 0.289429 4.128161 -0.170901 1.618691 1.691046 1.368745 0.689375 -0.259508 0.622816 3.671235 -1.183446 -1.495450 -1.821529 1.770022 0.268736 -0.117460 -1.257499 1.566723 2.171772 -1.824596 3.574473 -0.408627 2.330701 -1.730909 0.939388 -2.020335 0.955637 -2.758983 1.998484 -0.026588 -0.742858 -1.745624 -1.569272 -2.819978 0.095893 -2.900698 -0.322857 3.157588 1.107020 0.936900 -4.112578 -1.834143 -4.864712 -3.458023
对 1.984587 -0.291190 -2.630323 2.640603 4.735560 2.011961 1.119096 -1.139339 0.953598 2.015563 -0.728073 -3.132476 1.759551 2.393991 -0.102624 1.029512 -0.400520 0.419693 -1.712410 0.119128 5.400465 0.440827 1.298422 2.480414 -3.306137 -0.715436 -3.817876 -0.293818 0.469584 -3.945740 -1.380558 -3.179105 3.321318 -1.014102 0.762791 -2.065076 -2.240467 2.530343 3.527090 2.533429 1.898623 -2.836049 0.763991 2.041072 -0.238256 0.948028 3.586034 -0.956795 -0.687201 1.965611 1.897385 -1.723834 0.563092 0.014815 1.135167 0.033381 0.398459 1.005023 -1.474827 -0.410521 1.631931 1.551911 2.582124 -0.950647 -0.966843 1.645572 -3.545942 -1.871094 -2.698722 0.767977 0.117143 1.095675 -4.085772 0.993027 3.448624 3.664923 -2.637846 -1.730974 1.582234 -0.709133 1.625916 -1.042676 -1.919640 -0.815777 -3.366410 1.025855 -3.855627 1.477782 -0.691884 0.211772 0.992714 -2.323894 3.693153 1.789101 2.732425 0.426781 -0.298016 -1.846040 -0.553830 -1.793087
市 -1.092162 6.450118 0.829037 0.858147 3.521346 4.628265 0.851882 0.636215 0.474568 1.270661 -1.693575 0.822586 1.928736 0.340326 -3.538364 0.505278 -2.024369 -6.203458 -2.314294 3.199069 -7.058443 -4.067898 -3.146834 2.114700 3.783534 1.337945 -0.089536 -2.597657 -0.006365 -1.480611 1.494287 -1.764084 5.388239 0.920355 -0.634127 0.979410 1.381061 -1.494100 -1.789942 1.649773 1.020405 0.246689 3.944933 3.905010 -0.885459 -5.359664 -1.654307 -1.378675 -4.790581 2.349276 -6.878886 -2.836359 -0.521423 1.361967 0.447458 -1.656658 0.837002 3.930775 6.730849 2.185794 -0.028763 0.835945 -1.940248 -0.660846 0.427141 2.507319 -3.128308 -2.115349 2.835428 1.095790 -0.089337 -3.974440 -0.111919 -0.945570 1.676000 1.989795 -2.288532 1.019829 -3.572266 -0.641494 2.501027 -1.954872 1.882769 2.303865 -0.946356 -3.152545 2.998400 -0.555510 2.037939 -0.758410 1.919214 -0.007767 1.566566 -2.906365 1.288897 -2.492731 0.476193 3.692523 4.587252 4.098599
） -0.686909 1.046641 4.628840 -2.638388 -1.934149 2.187676 -1.721142 -1.321831 0.537190 -4.102656 -1.636783 -0.309076 -0.749341 -1.030268 -1.556401 2.824974 -3.026255 1.157156 -2.381033 2.394322 -1.462164 -1.843944 -1.396563 -3.880557 2.795736 -1.133773 0.546193 -2.804636 3.448280 -1.870000 -0.257908 -2.962985 -0.379634 -1.126200 -2.334458 -0.044625 -1.459369 -1.655617 2.074131 4.053319 -1.510458 -1.255658 0.671199 0.464534 -1.584891 -5.169520 2.163111 -0.036489 -2.093825 -0.059102 1.145905 1.397661 0.094330 -2.156418 1.097309 1.621339 0.881677 -1.081166 -1.514610 0.240519 1.137938 2.029108 0.106152 4.102080 -2.874800 -1.897646 -2.142028 2.295117 0.437362 -4.683481 3.276465 -0.582417 1.583312 -2.204522 2.501945 0.704107 -0.132995 4.253188 -1.615258 0.457597 -4.003753 -2.840089 -0.535651 -0.683412 -0.579558 1.121755 -1.781825 2.408488 1.010863 -0.231720 -0.063160 0.742677 -3.205101 0.379704 2.618170 0.820760 2.320626 1.243103 -1.923883 1.207759
（ 5.085408 1.869465 -3.603907 0.872025 -2.384017 -0.509953 -1.306546 2.124900 -0.997076 -2.888480 2.789811 -3.214411 3.660874 1.122694 1.712852 0.305451 1.141459 -0.631388 -0.131922 -0.846205 0.195681 2.683206 -2.182730 1.154939 0.809293 1.613758 -3.490510 -0.522477 3.008109 -2.967455 3.813136 -1.290771 3.438546 -1.143773 -2.993340 -4.242490 1.456530 -2.383430 -1.601469 1.009254 0.201246 -1.814873 3.896652 -2.854538 -2.140705 -0.341262 -0.542826 5.739732 -4.358676 -3.038959 2.681394 1.453056 -0.084427 2.213564 1.115477 -1.255018 -2.138517 1.609768 -0.122277 5.738899 1.393935 -0.946449 2.198097 -1.496891 -0.787256 -2.390207 0.315841 -0.089781 -1.638363 1.686900 0.729446 -1.541186 3.687638 0.994166 -2.032465 -1.526797 1.608948 0.849581 0.841685 -0.747672 -1.117922 2.149427 -1.951079 4.394989 -1.605315 -3.894200 0.932772 -3.033279 -2.751010 1.552244 -0.415288 1.690717 -1.054803 -2.482829 0.730800 -3.132678 2.193205 0.242550 0.764675 2.210691
限 4.318036 4.187400 3.915820 3.253145 -1.582412 1.174573 -0.081754 -0.841572 0.892013 -0.420773 0.259637 2.174219 3.917196 -3.460802 -6.296035 -0.648287 3.029900 -3.559793 1.040027 2.845435 1.619632 -2.417516 -0.568616 0.175717 -1.388770 0.596644 -0.264942 2.551865 -7.140736 -0.064646 -7.950761 0.885419 -3.839284 -0.202436 -2.671319 -1.499637 0.198310 0.842997 -2.893618 -3.602078 -1.103217 -3.649809 -0.522564 2.484224 2.480315 -4.290272 0.162401 -0.184556 -0.565467 -0.369908 1.687012 1.760045 -0.236658 4.582886 -2.645337 3.750998 -0.087425 3.925674 -4.481943 1.325008 -4.148687 2.795131 2.600224 5.327353 0.289052 -6.294056 1.093968 2.415107 -2.427173 3.969998 -1.292898 1.485234 -4.430648 -1.723017 -8.272326 1.220924 -0.504297 0.797341 0.674637 4.751700 -1.692206 1.020364 -0.956580 1.139700 -2.019073 -0.948116 4.569570 2.444336 -2.399164 -2.383692 -0.030051 4.911988 0.600835 1.136114 1.549281 -4.118488 1.293637 -4.495931 -4.686164 0.740908
费 1.156981 0.606202 3.949749 -1.650139 -2.240978 2.110069 -0.093221 -0.984075 -1.975714 0.694166 10.242946 -2.105137 -2.961278 -0.336517 4.373912 -1.779241 1.549333 -1.325137 -0.321385 3.314469 2.372651 0.171615 -3.669221 -0.231456 2.070542 0.747563 1.153108 -3.752528 -6.255414 2.696627 1.787213 -3.488042 -0.134577 0.343248 1.322420 -4.462981 -4.520401 -3.224870 0.980506 2.379961 1.061327 1.074584 -0.520740 -3.463094 1.985380 1.437911 0.245160 0.328301 -2.757669 -1.498973 2.120151 -3.825307 -0.905027 -0.475910 4.845400 0.017385 -2.284719 -2.383966 -1.590879 -1.206191 -0.721754 0.169026 -0.715943 -1.755711 2.345519 2.615823 -1.675306 1.075949 3.546920 -2.306988 2.442115 -2.450630 -1.583043 -6.503016 -3.057889 -0.346042 0.337898 0.076343 3.095435 -1.973257 -3.577468 -1.978758 0.760160 5.503511 0.932716 -1.113015 -1.548365 -0.480542 4.563546 2.664574 -3.714122 1.486398 0.162911 2.247758 -0.619277 1.340855 1.793443 -1.451553 0.268554 -2.876789
据 0.081783 -1.166803 1.603378 -1.621732 -0.545044 -0.625949 -1.937864 -0.375512 -3.094521 -2.601832 -0.686560 -1.907778 -1.341898 -0.065133 -3.038830 -0.525299 0.073707 3.443209 0.615812 1.665041 1.682038 -5.577910 -3.304179 3.786900 -0.020854 -0.589589 -2.909482 -3.463230 4.254505 -0.122421 2.815046 0.595271 1.395243 1.399519 5.770125 -0.619056 1.407838 1.954068 -1.122781 -0.283614 -1.054915 -0.821454 -0.742338 -2.053619 -1.027246 -0.675973 1.079115 -3.219102 -0.787303 -2.063295 1.214286 -5.357666 -2.339082 -2.105820 2.220446 1.279494 3.566609 -0.620475 0.107244 -0.286507 -2.153814 3.537865 -4.320296 -0.688754 2.068499 2.119802 -0.524932 -1.763075 -3.732869 3.218384 -2.311660 3.913240 0.162999 -2.145554 4.717475 0.092246 -0.676938 -0.386475 -0.222232 2.904358 -0.026794 3.182324 -5.651717 0.222747 -0.618574 5.018164 2.757004 0.596647 -1.813139 3.064612 0.004990 1.018056 -3.834368 -0.348121 -0.030233 -2.786959 0.406552 -1.763748 -1.675171 -5.592657
决 -1.455680 -1.533530 3.715441 -1.054141 -2.073592 -3.013238 -2.113249 -1.035127 -1.027103 1.054721 -0.106329 2.422963 -0.562326 -0.772432 -0.058465 0.635575 -4.274058 -0.986742 2.047732 -4.342637 -3.434788 -5.601961 1.261276 1.201636 -0.934660 2.127937 0.422684 3.300439 -0.929994 -2.422400 1.129895 -4.195505 -0.279771 -0.545514 3.594484 -3.578594 2.803470 -3.102097 -1.900738 -3.415353 -2.391221 2.334079 -5.066730 -6.009581 0.221491 -1.490552 3.018308 4.720198 -1.654425 -0.401081 6.006837 3.109140 -0.132757 -1.191787 -6.988726 2.607383 6.699588 -1.236140 7.312365 0.063509 -0.572529 -0.523833 2.441401 1.298070 -3.119519 -7.009387 0.774763 -3.356144 -2.287083 -1.217997 0.235177 0.898089 -3.949621 -3.498091 2.162524 2.968835 -0.781169 1.692404 -0.165975 3.126907 1.270712 0.118131 3.472949 -1.673826 0.691608 2.877547 -4.971094 3.807583 -3.279002 -0.934032 -4.178433 -3.887843 0.189492 1.285075 -0.477389 -1.486274 -0.669100 0.627766 5.207653 0.916522
： -4.576405 -2.553961 -1.966639 -2.517322 2.282280 4.393062 1.349813 2.176721 -0.043022 -5.122808 0.712766 1.125514 2.599120 -2.985203 -2.510009 1.237209 0.546472 0.499374 0.018174 -1.248537 1.472754 1.693238 -0.025956 1.758989 -1.356623 -0.648770 -3.152125 0.306943 -1.194818 -2.930644 -0.313869 1.105463 0.802031 -1.092207 0.990127 -0.103869 0.712824 -0.058001 -1.844031 0.184466 0.488861 -4.146673 0.056013 2.944702 -2.307578 -0.283364 0.210001 0.326282 1.363055 0.629226 -2.381038 2.840554 -2.512534 -2.338700 5.945571 -2.796430 -0.837316 2.459370 1.381446 3.125576 3.377719 -1.440811 0.775510 0.552508 -0.308423 0.510429 -5.570816 1.133264 -3.244304 3.205507 -3.120378 -0.898419 0.854778 -2.870131 -0.905518 -1.527361 0.943911 0.463653 1.899339 -2.756174 2.636786 -3.976462 -1.256407 3.507202 1.695687 -2.943239 -0.804598 -0.025557 2.055258 -1.115992 0.520238 -1.024860 -0.079599 -1.037964 0.158763 -0.240314 -3.363951 0.915491 -0.397585 0.807148
上 -0.439684 -1.617018 0.119040 -0.837501 -1.285860 -1.464640 0.523995 -3.389178 0.307797 2.621596 -4.626090 2.194001 -0.366576 5.850542 3.385566 3.689652 -2.260065 3.704136 3.286626 6.907315 3.507319 1.842440 -5.912004 -1.887388 1.955379 1.475495 3.008844 -0.063054 1.746676 1.580998 -0.906165 0.949122 -1.474255 -3.139720 1.531795 -3.349403 2.855989 3.796491 -4.226471 0.231142 -1.529872 -3.102225 0.487817 -3.706022 0.101149 1.415897 -4.614067 -3.144983 -1.189878 1.014689 3.969514 1.484145 0.699111 1.251476 -0.004239 4.459655 2.400347 -1.984725 -2.386544 -1.761848 1.899608 0.708329 0.467159 -3.933205 -2.398772 -1.301427 -0.341254 -4.771812 0.280056 1.414461 -0.854435 -2.717203 0.440542 -2.528549 2.262346 -1.109978 -3.275223 -0.844925 -1.053543 1.693217 2.348663 -1.226921 -0.779284 -1.819693 -0.573123 -1.113608 3.179210 3.021536 -3.024660 -2.082394 -1.727056 0.610905 -4.265250 3.412555 -0.236419 -4.380033 0.059665 -0.812558 -0.105614 2.748830
间 -0.094714 2.364955 1.525763 1.414860 -0.351918 2.282543 -0.775463 1.474983 5.330445 -5.859807 -0.027802 0.819502 4.014847 -0.463541 -3.433720 2.810889 7.216173 -8.792251 4.217639 1.846333 2.511050 -1.202389 -1.750243 -1.635249 -1.638914 1.028971 0.528202 -0.447144 -0.726703 -2.533160 0.179255 -2.759563 -5.107953 4.756224 1.314164 -0.635682 -0.249693 -0.313746 -3.543072 3.478228 2.655270 -4.149256 -6.031934 -4.804497 4.018353 -3.734389 2.401981 -1.872170 -1.334562 -2.556744 3.715075 -0.215130 0.495646 -0.017870 -0.425647 -0.197767 1.235826 -1.320757 1.887795 1.905247 -5.708507 -0.557056 5.678284 -1.648375 -2.064193 0.155537 1.963247 5.016942 -2.357581 0.673544 -2.239385 0.680350 -1.748331 4.204660 -2.491178 2.560205 0.582958 0.439728 0.710361 -2.376953 0.341061 -5.218350 3.069334 -0.761524 1.874758 2.909794 0.391372 -0.650649 -1.437707 -1.332781 -0.265197 1.680276 -4.345675 1.505408 2.110983 -1.246698 0.118638 -5.177230 1.683652 3.245540
曾 -0.991016 -2.090262 0.710439 4.151552 -0.590955 -1.247573 0.951466 -1.474255 -3.640764 1.497323 0.613611 3.329259 -0.007607 -3.439753 2.198323 1.511595 1.050552 2.890542 2.806046 -1.955039 3.320058 4.641033 3.995881 -2.521420 0.382483 -0.798836 -0.337911 -0.181518 1.461295 0.554036 -0.402095 -2.270234 -2.578108 1.023095 1.708233 -0.285913 -0.115512 0.223868 0.560216 -3.337009 -4.728781 6.448474 -1.392567 3.034847 -1.252915 2.383118 -3.987247 -0.791607 4.419607 1.338642 -1.156892 -2.348559 -0.375862 -4.902614 -2.878447 1.565826 0.533318 -2.074624 -0.641331 3.341855 6.054357 0.253066 -0.348394 -0.614035 1.800696 0.500149 1.441139 2.935170 1.135331 -1.198627 -2.447897 0.158165 -0.616046 -1.626235 -1.051788 2.812973 0.982053 -1.786418 6.835682 0.745232 -0.676551 -1.047227 -1.582148 1.451795 -1.288320 -0.458649 2.437708 1.424062 0.922541 2.375847 -3.285713 4.663120 2.599660 -1.524360 -4.466660 -0.826828 1.230926 -7.204975 -2.195673 -0.216506
依 -3.141966 -2.198629 -1.758996 -3.769941 4.270175 -2.692047 4.667529 0.195188 2.260858 1.235332 1.856295 4.618454 -3.422215 -1.820059 0.381100 -4.730576 2.263456 -1.280064 -3.215872 -2.751457 -1.121749 1.787478 -1.921855 0.063163 1.259026 -0.103149 4.506754 1.858039 -5.171642 1.658331 -0.836625 4.012983 1.239544 2.364382 -0.107093 0.795341 2.609749 -2.782586 -1.430252 -6.069989 -3.187145 -0.396331 -3.430075 -0.647701 -2.672397 2.998101 -2.619598 -0.286120 -1.127053 4.856391 -3.333837 -3.250749 1.048950 -0.873851 1.778494 2.209378 -3.889003 -1.481247 0.344004 0.863642 -0.500665 -1.769353 1.342668 -2.019543 0.531991 3.340924 -1.546299 1.653309 -0.970121 0.277442 1.436626 -2.110505 4.099507 0.609929 3.024061 1.360465 1.537615 -1.826779 -0.232107 1.200747 4.131796 2.698272 0.917546 -1.458497 -2.723797 1.570375 2.119355 -4.636746 7.406993 -2.003991 -0.369224 -5.903061 -1.438267 -1.344502 1.873611 3.546288 -5.124931 2.405137 -2.751099 -1.319777
未 2.201516 -2.752037 -4.672870 -1.357497 2.745474 2.311260 2.843454 1.842409 -1.057130 1.500293 3.135183 -0.049032 -2.045434 0.030131 -1.671418 0.642288 0.759344 5.904694 0.808644 -0.077068 2.196162 -1.366734 -1.618873 -0.366666 -0.678722 -0.490734 1.575924 3.614981 -1.266497 3.904854 -4.386569 -0.164302 -0.525651 0.397017 6.059356 3.902543 -1.213704 2.654269 1.394471 1.681155 -0.121889 0.932274 0.302204 2.019729 -0.568927 1.320317 -1.728915 4.153402 2.295268 -0.877639 -0.498769 1.632642 -1.979370 -2.775171 -0.672122 3.461764 2.252285 0.833075 -4.482158 -2.412086 0.633449 -0.458703 1.238308 0.628554 -0.264767 -1.140853 2.027909 0.083937 -1.738613 3.506500 0.801545 -0.686590 0.953125 -0.913646 -0.568170 2.151600 0.620861 4.058045 -2.105411 1.934467 -2.873587 -4.824510 2.389339 -0.926981 3.831167 3.099326 0.628073 3.078239 -3.192580 -1.302931 3.024909 -4.347503 -0.197505 6.136615 1.859934 -1.626199 0.290419 2.898332 -1.288728 0.324109
规 5.649857 4.953436 -2.169005 0.577580 0.784080 3.200859 2.675016 6.106698 3.216844 3.974130 0.227953 1.991806 4.168074 -3.313022 -2.069854 -3.414789 1.726326 2.767920 3.007628 -0.175789 0.163397 2.976292 -3.834454 1.213074 -2.506932 1.293790 -1.380339 5.237490 0.115805 -2.579463 3.897087 -4.942459 -2.427831 3.480344 0.823751 3.682583 0.748404 -6.213746 -0.083870 -0.241289 -4.525410 2.728282 -2.200566 -6.024742 -0.740538 -3.190191 1.447552 -2.743216 -5.870746 4.874599 5.657120 0.347726 1.491793 0.797724 -4.197219 6.287883 0.849600 -1.733552 2.212622 -4.665063 2.780762 0.833694 -0.534706 -3.361306 -2.326768 -6.417207 2.785025 -2.487732 -1.982756 -1.776462 1.068999 1.354817 -0.438598 -1.844202 5.953075 -1.205873 -4.411310 1.761454 -0.432313 -2.744619 -4.275682 0.008389 -0.976112 -0.982293 -1.153712 2.686366 1.039234 -0.301225 3.217417 3.247620 -0.815189 -3.374295 -9.069642 3.459135 -4.932083 -0.963297 -2.547234 -0.359479 0.985301 2.600693
明 -1.659005 -3.492825 0.138681 -3.408669 -3.326214 -0.408523 -0.932252 -1.687029 3.331201 -0.725800 2.116516 -1.953786 0.782590 2.268679 0.801576 3.920544 0.139767 -1.583923 2.656462 -0.317209 -1.905156 0.741910 1.083954 -3.213440 -4.437955 1.737265 -1.348848 2.275087 -1.923852 -0.568206 -0.618503 -3.898771 -1.446729 -3.281997 0.271416 -1.384366 0.886136 0.623452 -4.240970 0.644803 0.450417 -1.622832 -3.004477 3.116568 3.288112 -2.989271 1.669077 0.849348 -0.973900 1.910150 -1.706300 -0.611814 -6.544528 0.458586 2.321768 -4.076996 -0.042492 -0.476064 -0.725026 -2.301678 -0.116721 -2.589772 -6.854617 1.057628 0.077305 1.514747 3.924701 -2.711298 -3.022740 0.832438 0.360694 0.659689 0.030323 -0.168257 5.073709 -1.023295 5.707325 -2.343281 -3.583861 0.383169 2.746214 -2.465851 -3.655500 1.494946 -1.849283 0.034262 0.006976 -1.634366 -1.998236 4.964283 0.673581 1.745065 0.868493 1.075056 -1.360270 -3.640899 -0.246614 -0.319625 -3.193286 -3.829558
应 -0.724054 2.788465 -3.781351 -1.810743 -0.499701 3.147969 1.096742 -1.231357 0.990761 0.005899 0.542767 -0.796129 -1.575950 -0.307497 -0.380187 0.309731 2.841385 1.714955 3.333097 -1.284251 7.231251 0.191825 0.221266 6.563353 -0.453789 -0.527541 1.946800 -1.935542 -0.899491 2.415033 -0.152301 -2.297787 1.853196 0.165801 5.035899 -1.482113 -2.990805 -0.596112 -2.129204 -1.145390 2.131655 -1.707258 -2.182405 3.576148 2.837978 2.930508 -1.896363 -1.975971 -2.378050 -1.438430 0.187709 -1.770663 -1.734353 -1.097582 -5.452175 0.439705 -0.901743 -1.155012 -0.568832 -2.960268 -0.668034 0.802319 1.224601 -1.619249 2.353419 -3.648306 -2.017112 2.967701 0.882464 -0.791246 1.633695 0.372361 0.363962 -2.443454 3.972893 -0.511314 -0.980539 -0.557105 -0.301821 -0.189084 2.362558 -1.171551 -3.407184 0.036855 0.624366 -0.520417 -1.610614 -2.653881 -2.027806 -4.751481 1.354394 1.534890 1.836895 2.202863 1.174351 3.222567 -0.514470 4.358297 -2.982002 1.475884
代 0.769084 0.767548 -2.781697 2.244523 6.869705 -3.095591 4.232962 -1.184059 0.010240 2.047068 -0.253254 1.707258 -0.778081 0.849907 -1.982809 -2.737977 -3.570383 2.004155 -0.410672 -0.242293 0.501385 1.921204 -0.843954 0.967711 -2.327255 -0.930989 -3.956123 -0.741891 3.280528 5.337612 0.832240 2.003734 -2.048293 -0.284189 0.453212 -3.821694 1.584958 -7.403386 -0.892997 2.658249 0.124622 6.307826 -2.740990 5.237386 -3.418205 -7.350745 3.648350 2.614839 -0.091459 0.131876 -4.197135 -0.372901 6.234300 -2.170638 -1.311196 -4.525633 -1.160879 -0.233431 -0.273771 -2.452868 1.920268 -0.174087 1.570794 -2.919207 -3.082957 1.642875 0.483894 -0.050052 -0.807871 -3.444977 1.461813 -0.714755 -3.311278 2.624264 -2.172251 -1.326137 2.157163 1.614416 -2.192786 -1.870051 0.483979 2.105577 -0.416844 2.064517 8.780495 1.351969 0.245161 -3.622830 -2.421450 2.224847 4.934487 2.745254 -1.371955 -0.659479 5.437149 3.584851 -0.424291 3.939756 -0.897384 1.840795
都 1.628721 1.189132 5.415889 -2.649464 -1.349377 2.158515 -2.889539 -3.012088 -5.426102 1.629205 -0.563299 3.818037 2.211644 -2.208400 -1.455759 -0.679720 -3.563605 -3.758762 -3.434641 0.637916 -4.707367 0.380834 0.688858 -1.038550 1.201076 -1.356777 3.065176 1.999187 -4.993201 -0.247176 0.934473 6.084341 5.129013 0.842530 1.844726 0.313447 -1.263837 1.303245 1.973486 -3.213238 -0.849894 -2.495489 2.533457 3.310540 0.722187 -3.701311 -0.431341 3.923394 -0.689481 -2.782598 -3.391106 3.711729 -1.757017 2.040897 4.402730 4.149682 -0.663611 -1.394016 -1.482043 -1.302332 0.000266 -4.600594 -2.780258 -1.155591 -0.312022 1.338597 2.707056 -1.771058 4.665979 0.823296 1.424278 3.042915 -0.483919 5.665960 -1.315267 1.698039 -1.526426 0.734990 2.303244 -0.834550 3.391605 -5.943183 -3.850068 0.210093 -1.717076 -0.309018 1.173671 5.442746 0.993351 1.124715 3.650823 7.165156 -5.727256 1.016957 4.321090 3.671516 0.845568 6.767009 2.332904 2.982719
方 -0.201094 4.108718 -1.253249 -4.803350 -0.196777 -2.285890 -3.201910 1.715707 -4.438372 -0.169307 -3.904722 -5.315669 -1.026804 4.243539 2.671962 0.799538 -0.709038 -0.459864 -0.467427 2.620914 0.353646 -4.561474 -0.411431 -0.668216 0.477424 2.147698 3.557465 -2.463457 -0.889130 1.708809 1.193094 1.046624 1.554497 3.440652 5.038430 0.090981 3.865392 3.796490 1.213922 -0.721916 -0.171224 -0.507273 1.768669 2.668764 0.064847 1.725370 -1.561156 1.297215 0.437927 -2.034721 -0.992540 -2.517361 -1.593475 0.960259 -2.072306 0.856771 -4.227588 -6.996498 -3.322055 -1.583996 3.067621 1.996282 -4.550360 -0.306913 0.043363 -7.345370 3.858821 5.221662 -3.842560 0.964745 -6.004100 -1.134176 -3.972567 0.536336 -3.359423 -4.223796 0.387899 0.796254 0.820618 0.350205 0.971317 -1.545599 2.036366 -1.548860 0.293402 0.456583 -2.565919 -3.600537 3.691445 0.285544 2.326842 2.254786 -0.630828 1.148012 -1.196371 -0.671088 0.557586 -2.364201 2.156636 2.974690
川 1.879487 2.767625 -3.681035 1.564680 -5.501367 2.094965 -0.736486 -1.468789 3.346659 0.715426 2.423473 -3.022539 -2.105367 -3.710382 -3.015873 4.864377 -1.550829 2.636217 -0.729960 5.422772 -9.336725 -1.698527 -3.081173 3.312552 -2.148768 -1.482499 1.101681 0.270015 1.660126 -1.930768 -2.567548 2.003350 5.375033 -6.246658 -3.819343 -1.556519 -0.977539 -5.714242 1.269059 1.186912 -0.729446 1.106562 -0.464959 2.008080 -0.928657 -0.720120 1.375829 -1.720599 -0.983806 2.315835 0.206702 1.985552 1.769393 -5.121356 -3.017916 0.778829 -4.679856 2.592427 8.004707 0.762711 -1.758228 -5.052361 -0.745960 -8.137880 1.566535 4.190468 0.564038 -6.544459 5.650203 -3.599043 -1.512039 -1.234296 -4.983728 4.110436 -1.396494 0.372484 1.285784 1.807472 4.069273 0.092929 2.409947 2.572012 4.145130 -4.171588 0.624176 1.973087 4.811525 5.548763 3.286245 -1.323964 0.468896 4.422493 -2.647591 3.453323 3.729587 3.312565 3.450195 -0.577282 5.186534 1.258307
债 2.823437 -6.001856 4.081924 -6.532933 1.277832 -0.373481 5.494489 -2.652033 -4.262599 -1.240150 3.967705 2.406320 0.720324 4.530909 -1.080093 3.085762 2.206544 -2.622461 -0.978263 -4.486999 1.444813 -0.614050 -2.085015 0.352928 0.804679 -3.174109 -5.429833 -2.846632 -0.177373 1.927651 -1.339293 -3.245610 2.275482 0.695077 0.385269 -4.427178 -1.517306 -1.426251 1.196671 -4.474676 0.444959 1.305174 3.408901 -3.965941 0.272466 0.880274 -0.122838 -0.790065 4.180659 2.186466 -0.116175 -2.369365 1.803597 -2.909175 1.580298 4.760387 -3.557891 0.561088 4.047388 -0.661474 -1.038421 4.583573 1.792628 -1.066063 4.023869 -4.468972 -0.360939 -2.677648 -0.589142 1.005733 1.322499 2.038921 -0.826393 3.325630 -0.415575 1.398451 -3.247153 0.215487 -1.666170 2.280593 -4.130113 0.066399 2.495551 -5.089895 1.091662 -0.607519 -2.201030 -4.998886 1.953576 1.574565 3.565085 3.102060 1.190679 0.618277 -0.086280 -4.612853 0.810673 1.989259 1.736405 1.534363
贷 0.412499 2.648291 -1.845396 -1.324851 6.461794 -1.407706 1.538220 3.667383 1.559510 -1.643027 0.761301 3.994207 0.693817 2.197673 -2.017119 -3.720335 4.152450 -3.908419 -3.117319 0.934878 0.514635 -5.562381 -3.742214 -2.506235 -2.037354 5.464721 0.217788 -2.531458 2.018872 1.330096 1.745746 -0.923313 -0.749740 0.613560 -5.626852 1.224168 1.039967 0.108170 1.210855 -1.609330 2.458467 1.219620 -0.064805 0.738129 0.307527 0.416856 2.089535 -0.955027 0.578261 0.789606 3.810934 2.685329 1.787541 -0.095973 -3.407591 3.596092 0.791160 3.466531 1.871905 0.007659 0.766645 0.290017 -4.047925 0.417179 3.534376 -9.661742 1.013731 -2.200087 5.746569 1.173683 0.391183 -3.600617 -2.949815 4.005146 2.075416 5.880253 3.040076 1.970031 -1.766505 -4.692100 -1.012293 2.454301 1.816651 -2.673725 -0.324974 3.869009 4.019482 -2.292221 -7.830591 2.210133 -6.364444 7.127641 0.611053 -3.695268 6.221326 5.623415 1.875621 -2.738599 -0.125941 -2.855826
7 -0.072305 -0.400025 -0.306515 -1.363809 -1.839305 -2.092291 -1.662327 -1.116104 0.523006 -2.045888 -0.187603 -2.006625 2.199673 1.034748 3.413456 -1.519090 -0.706398 -0.253175 1.677075 -0.214268 1.701941 -0.088780 3.854843 -0.948788 0.612774 -0.299504 0.402174 -3.420682 -0.368780 1.485161 2.039680 0.271922 -2.763472 -2.434478 -1.443921 0.057981 -2.236985 -1.237353 0.697974 -1.588999 -0.450673 0.447376 -1.879157 0.200031 -1.065753 -1.602752 -1.030672 0.865713 -1.810066 2.497380 -0.506844 3.521220 -1.468422 1.901723 0.608381 -0.851047 -0.116628 -0.493726 -0.727642 3.337554 0.359819 0.325516 -1.411399 -0.078630 -1.612340 1.761964 -2.427546 2.558661 1.986315 0.588745 -0.812914 -1.331341 0.898025 0.388683 -0.520558 -2.569036 3.354394 1.706853 -2.335873 1.979849 -0.968081 -0.999803 -0.049220 -0.138428 0.623699 -0.128031 0.704982 0.561000 0.101859 0.241682 -0.287289 -0.577635 1.863178 -0.334103 -4.112664 -0.163844 3.652730 1.208513 3.275367 0.532922
